tree
version=v4
num_class=1
num_tree_per_iteration=1
label_index=0
max_feature_idx=15
objective=regression
feature_names=saat_sin saat_cos gun_sin gun_cos ay hafta_sonu mevsim onceki_1saat onceki_1gun onceki_1hafta hareketli_ort_24 hareketli_std_24 prophet_tahmin temperature_c humidity_pct precipitation_mm
feature_infos=[-1:1] [-1:1] [-0.97492791218182362:0.97492791218182362] [-0.90096886790241903:1] [1:12] [0:1] [0:3] [0.01:97] [0.01:97] [0.01:97] [5.6729166666666666:35.178750000000001] [4.0471889510865422:25.518151539071404] [11.251412416724801:28.124925306087675] [-15.5:33.5] [15:100] [0:21.100000000000001]
tree_sizes=2897 2907 2915 2925 2887 2886 2917 2899 2913 2896 2907 2884 2864 2882 2895 2881 2899 2884 2924 2878 2892 2893 2900 2829 2858 2890 2823 2868 2869 2875 2877 2860 2849 2841 2901 2869 2832 2824 2825 2837 2841 2829 2861 2841 2843 2824 2804 2776 2837 2815 2885 2815 2759 2863 2781 2848 2781 2827 2729 2741 2815 2829 2832 2773 2789 2790 2816 2825 2722 2778 2793 2832 2812 2759 2779 2815 2826 2751 2734 2826 2817 2771 2790 2836 2766 2785 2767 2753 2756 2832 2813 2730 2834 2775 2775 2734 2731 2762 2768 2760 2734 2758 2738 2778 2766 2746 2743 2826 2749 2782 2749 2747 2788 2772 2765 2785 2811 2797 2760 2763 2796 2834 2799 2776 2734 2728 2775 2733 2715 2756 2782 2757 2828 2727 2765 2781 2764 2820 2773 2801 2739 2776 2822 2754 2791 2770 2758 2755 2742 2742

Tree=0
num_leaves=31
num_cat=0
split_feature=10 10 12 10 12 0 10 0 12 0 7 0 10 10 10 10 12 10 12 12 7 12 12 10 10 7 12 12 10 0
split_gain=110775 40283.4 53285.6 20863 24238.6 18599.9 16178.5 15038.4 13423.5 12039.3 8475.83 8018.68 7919.35 7513.44 6074.03 5983.4 6131.38 5845.88 5598.09 5328.96 5216.85 4939.92 4285.14 4094.67 3874.46 4082.86 3694.82 3636.76 3547 3502.39
threshold=18.267916666666672 12.449375000000002 17.544152908789979 23.813958333333339 20.88799008066756 0.91597561503675362 14.423125000000001 0.60355339059327384 21.942375132497407 -0.60355339059327362 19.785000000000004 0.60355339059327384 15.686458333333336 21.352708333333339 17.006041666666672 21.039583333333336 17.682363316230838 26.452291666666671 19.488494408942582 17.577959282895986 27.665000000000003 16.839038562148797 15.742082946942203 10.851458333333335 27.018541666666671 35.085000000000008 26.302229966571268 18.702542856881198 21.606875000000006 0.12940952255126045
decision_type=2 2 2 2 2 2 2 2 2 2 2 2 2 2 2 2 2 2 2 2 2 2 2 2 2 2 2 2 2 2
left_child=1 19 6 4 5 10 22 14 12 24 11 15 -4 26 21 16 -2 -11 -14 23 29 -8 -3 -1 -5 -26 -6 -17 -12 -15
right_child=3 2 8 9 13 -7 7 -9 -10 17 28 -13 18 20 -16 27 -18 -19 -20 -21 -22 -23 -24 -25 25 -27 -28 -29 -30 -31
leaf_value=-0.19619500499877671 0.28152247899822114 -0.021374876658253897 -0.18546675468657653 0.24551404782102942 -0.052523477137441252 -0.042458914779821257 0.071373639826394011 -0.047476231103049674 -0.31821173264308406 0.078166910401753123 0.054525171777214762 0.096146593469994379 -0.021376415283646533 0.10500395830503952 0.14908640921412097 0.52886767484729968 0.13017750850769361 0.19743187577921531 -0.13341495052527214 -0.38612648435286751 -0.044654616411941545 -0.051346215139664322 -0.11906785082294408 -0.11667049112561596 0.57318409518818358 0.21698708919132026 -0.26116203649082081 0.27798334162895161 0.17415110138950687 -0.22690867546610316
leaf_weight=2408 1095 7667 2360 1404 3062 1734 7684 3072 885 2554 3060 2019 2450 1874 2343 207 1721 1719 2046 232 1113 918 1315 4938 206 132 228 478 777 83
leaf_count=2408 1095 7667 2360 1404 3062 1734 7684 3072 885 2554 3060 2019 2450 1874 2343 207 1721 1719 2046 232 1113 918 1315 4938 206 132 228 478 777 83
internal_value=0.00545673 -0.0469359 -0.0214818 0.0910095 0.0633307 0.107954 0.0167097 0.0502791 -0.134951 0.171312 0.135827 0.175503 -0.111295 -0.0144856 0.0777166 0.221267 0.189028 0.126146 -0.0723619 -0.15019 0.0417731 0.0582771 -0.0356775 -0.142738 0.282101 0.434078 -0.0669823 0.353798 0.0787497 0.0909269
internal_weight=61784 38318 30740 23466 17451 11091 22999 14017 7741 6015 9357 5520 6856 6360 10945 3501 2816 4273 4496 7578 3070 8602 8982 7346 1742 338 3290 685 3837 1957
internal_count=61784 38318 30740 23466 17451 11091 22999 14017 7741 6015 9357 5520 6856 6360 10945 3501 2816 4273 4496 7578 3070 8602 8982 7346 1742 338 3290 685 3837 1957
is_linear=0
shrinkage=1


Tree=1
num_leaves=31
num_cat=0
split_feature=10 10 12 10 12 0 10 0 12 0 7 0 10 10 10 10 12 10 12 12 7 12 10 10 7 12 12 0 0 10
split_gain=99974 36355.8 48090.3 18828.8 21875.4 16786.4 14601.1 13572.1 12114.7 10865.5 7649.44 7236.85 7147.22 6780.88 5729.03 5400.02 5533.57 5275.9 5052.28 4809.39 4708.21 3867.34 3707.45 3496.7 3684.78 3387.54 3282.18 3241.28 3221.38 3201.17
threshold=18.267916666666672 12.449375000000002 17.544152908789979 23.813958333333339 20.88799008066756 0.91597561503675362 14.423125000000001 0.60355339059327384 21.942375132497407 -0.60355339059327362 19.785000000000004 0.60355339059327384 15.686458333333336 21.352708333333339 16.118541666666673 21.039583333333336 17.682363316230838 26.452291666666671 19.488494408942582 17.577959282895986 27.665000000000003 15.742082946942203 10.728125000000002 27.018541666666671 35.085000000000008 24.893659984280369 18.702542856881198 0.37940952255126054 -1.0000000180025095e-35 21.606875000000006
decision_type=2 2 2 2 2 2 2 2 2 2 2 2 2 2 2 2 2 2 2 2 2 2 2 2 2 2 2 2 2 2
left_child=1 19 6 4 5 10 21 14 12 23 11 15 -4 25 -8 16 -2 -11 -14 22 28 27 -1 -5 -25 -6 -17 -3 -15 -12
right_child=3 2 8 9 13 -7 7 -9 -10 17 29 -13 18 20 -16 26 -18 -19 -20 -21 -22 -23 -24 24 -26 -27 -28 -29 -30 -31
leaf_value=-0.19564456974744179 0.26226246181637325 -0.01129274005217136 -0.18137730608682417 0.22805445412350647 -0.045566832795963103 -0.045519861921930159 0.037123928458026118 -0.050286315280739784 -0.30748502880008632 0.069074671045886521 0.046615017589936462 0.086155368833248647 -0.025491484927507687 0.10343791576764486 0.11015931783293745 0.49724040063916919 0.1184847328671455 0.18237639316723375 -0.13192808723698743 -0.37200405356024618 -0.047605767268486671 -0.1182983428130755 -0.11778608221555589 0.53934097287145633 0.20095383785100598 -0.17953072066195375 0.2589002730644398 -0.099933289970818864 -0.10382909877669244 0.16025964931286441
leaf_weight=2170 1095 6439 2360 1404 2719 1734 6221 3072 885 2554 3060 2019 2450 1747 4724 207 1721 1719 2046 232 1113 1315 5176 206 132 571 478 1228 210 777
leaf_count=2170 1095 6439 2360 1404 2719 1734 6221 3072 885 2554 3060 2019 2450 1747 4724 207 1721 1719 2046 232 1113 1315 5176 206 132 571 478 1228 210 777
internal_value=-1.54735e-10 -0.049773 -0.0255916 0.0812751 0.0549803 0.097372 0.0106903 0.0425812 -0.133388 0.157563 0.123852 0.161544 -0.110914 -0.0189452 0.0686469 0.205019 0.174393 0.114655 -0.0739277 -0.147864 0.0345006 -0.0390775 -0.140785 0.262812 0.40719 -0.0688171 0.330924 -0.02549 0.0811967 0.0696283
internal_weight=61784 38318 30740 23466 17451 11091 22999 14017 7741 6015 9357 5520 6856 6360 10945 3501 2816 4273 4496 7578 3070 8982 7346 1742 338 3290 685 7667 1957 3837
internal_count=61784 38318 30740 23466 17451 11091 22999 14017 7741 6015 9357 5520 6856 6360 10945 3501 2816 4273 4496 7578 3070 8982 7346 1742 338 3290 685 7667 1957 3837
is_linear=0
shrinkage=0.05


Tree=2
num_leaves=31
num_cat=0
split_feature=10 10 12 10 12 0 10 0 0 12 12 0 7 0 10 12 12 10 10 10 12 7 10 10 10 10 12 12 1 12
split_gain=90226.6 32811.1 43547.3 16993 19742.5 15149.7 13696.2 10753.8 9806.09 9267.5 7327.19 7234.23 7016.36 6291.46 6119.74 5430.82 5345.52 5202.34 4761.5 4712.26 4340.48 4249.16 4097.32 3917.73 3391.61 3263.49 3321.35 3204.38 3155.8 3137.45
threshold=18.267916666666672 12.449375000000002 18.203775311768265 23.813958333333339 20.88799008066756 0.91597561503675362 15.597916666666668 0.60355339059327384 -0.60355339059327362 21.942375132497407 16.750928555426253 0.37940952255126054 22.305000000000003 0.60355339059327384 21.352708333333339 18.702542856881198 16.221560140277656 15.686458333333336 26.452291666666671 14.423125000000001 17.577959282895986 27.665000000000003 19.487500000000004 22.137291666666673 10.274791666666667 28.106458333333336 22.938962976957061 19.488494408942582 -0.37940952255126015 26.302229966571268
decision_type=2 2 2 2 2 2 2 2 2 2 2 2 2 2 2 2 2 2 2 2 2 2 2 2 2 2 2 2 2 2
left_child=1 20 6 4 5 12 10 16 25 17 11 19 13 15 29 23 -8 -4 28 -3 24 -16 -17 -2 -1 26 -5 -19 -10 -6
right_child=3 2 9 8 14 -7 7 -9 18 -11 -12 -13 -14 -15 21 22 -18 27 -20 -21 -22 -23 -24 -25 -26 -27 -28 -29 -30 -31
leaf_value=-0.20199047066539402 0.2319163931424138 -0.017569107945208932 -0.18965628597251721 0.27300792034021631 -0.052052526465782283 -0.043243873948516753 0.11269335710471512 -0.038668681586021603 0.20697036296978855 -0.2921107842572202 -0.12605787176072053 -0.088561306255973138 0.057070527483031645 0.081154528297899431 0.077136846310299656 0.036089819844036052 0.020842204422865614 -0.031005982460231087 0.1732575689243622 0.052924722603694213 -0.3534038531048031 -0.045225486068284311 0.18347822797228033 0.61026402191377027 -0.11683282762942644 0.46339785311382586 0.11161899232257233 -0.12533169736411334 0.043766737737394805 -0.24431128107795588
leaf_weight=1459 1884 7214 1702 1137 3062 1734 4864 2439 342 885 1584 2518 3163 2219 1957 750 2349 1608 1719 3531 232 1113 1270 71 5887 162 443 2046 2212 228
leaf_count=1459 1884 7214 1702 1137 3062 1734 4864 2439 342 885 1584 2518 3163 2219 1957 750 2349 1608 1719 3531 232 1113 1270 71 5887 162 443 2046 2212 228
internal_value=-6.22579e-10 -0.0472843 -0.0243121 0.0772113 0.0522313 0.0925034 0.00572458 0.0520914 0.149685 -0.142221 -0.0244184 -0.0122796 0.117659 0.1486 -0.017998 0.18625 0.0827809 -0.117454 0.108922 0.00559643 -0.140471 0.0327755 0.128755 0.245657 -0.133746 0.249671 0.227758 -0.0838222 0.0656209 -0.0653762
internal_weight=61784 38318 30740 23466 17451 11091 24499 9652 6015 6241 14847 13263 9357 6194 6360 3975 7213 5356 4273 10745 7578 3070 2020 1955 7346 1742 1580 3654 2554 3290
internal_count=61784 38318 30740 23466 17451 11091 24499 9652 6015 6241 14847 13263 9357 6194 6360 3975 7213 5356 4273 10745 7578 3070 2020 1955 7346 1742 1580 3654 2554 3290
is_linear=0
shrinkage=0.05


Tree=3
num_leaves=31
num_cat=0
split_feature=10 10 1 10 12 10 0 0 12 0 11 12 0 12 7 10 10 10 10 7 12 10 10 7 10 10 7 0 1 0
split_gain=81429.5 29612 39383.1 15336.2 17873.1 12354.5 11141.5 10389.8 9737.28 8850 6895.75 6446.13 5226.92 6692.86 5092.54 4869.66 4810.95 4297.26 4293.58 3991.41 3917.28 3862.37 3587.98 3256.59 3158.99 2966.46 3337.54 2896.56 2848.11 2864.92
threshold=18.267916666666672 12.449375000000002 -0.12940952255126037 23.813958333333339 22.217810595616466 15.597916666666668 0.91597561503675362 0.60355339059327384 21.052942641889047 -0.60355339059327362 15.730116650411338 20.284424828284934 0.37940952255126054 16.750928555426253 27.005000000000006 15.686458333333336 20.368958333333339 26.452291666666671 14.423125000000001 21.605000000000004 17.577959282895986 16.518958333333337 20.441875000000003 16.115000000000006 9.6310416666666701 27.018541666666671 35.085000000000008 0.91597561503675362 -0.37940952255126015 -1.0000000180025095e-35
decision_type=2 2 2 2 2 2 2 2 2 2 2 2 2 2 2 2 2 2 2 2 2 2 2 2 2 2 2 2 2 2
left_child=1 20 5 4 6 12 10 -7 15 25 11 19 13 18 -6 -4 -13 28 -3 -2 24 -10 -16 -12 -1 -5 -27 -19 -11 -30
right_child=3 2 8 9 14 7 -8 -9 21 17 23 16 -14 -15 22 -17 -18 27 -20 -21 -22 -23 -24 -25 -26 26 -28 -29 29 -31
leaf_value=-0.2256174926864889 0.12848395096599233 -0.015992452696214878 -0.15295083574981516 0.20517386857679243 -0.0029968193293417656 0.088335501882175649 -0.041081674684008536 -0.033543270658890498 -0.33470466147323857 0.19662183543220599 0.22212633790213837 -0.063897599744948616 -0.084210030110211345 -0.12975116719745777 -0.27321781234128678 -0.058772882852806824 0.074910184601734583 0.20540150747462116 0.051449644872332667 0.045754316033165564 -0.33573365860442023 -0.17330975994527342 -0.078214363755763849 0.11369905638651921 -0.1161508955444617 0.49593955060666045 0.17389106526970866 0.06136262521484305 0.10983354185103072 -0.005860225648308794
leaf_weight=732 4197 7194 2138 1404 2653 6501 1734 2392 576 342 1277 1256 2563 990 305 3834 1241 1232 3512 2234 232 1040 1041 1513 6614 206 132 487 907 1305
leaf_count=732 4197 7194 2138 1404 2653 6501 1734 2392 576 342 1277 1256 2563 990 305 3834 1241 1232 3512 2234 232 1040 1041 1513 6614 206 132 487 907 1305
internal_value=-1.31946e-10 -0.0449201 -0.0230965 0.0733508 0.0496197 0.00930335 0.0772091 0.0555531 -0.121953 0.1422 0.0947135 0.0732718 -0.0195415 -0.0053704 -0.0431866 -0.092489 0.00508937 0.103476 0.00613128 0.0997453 -0.133447 -0.230837 -0.122402 0.163327 -0.127059 0.237188 0.370169 0.164595 0.0623399 0.0415784
internal_weight=61784 38318 30740 23466 17451 23152 13452 8893 7588 6015 11718 8928 14259 11696 3999 5972 2497 4273 10706 6431 7578 1616 1346 2790 7346 1742 338 1719 2554 2212
internal_count=61784 38318 30740 23466 17451 23152 13452 8893 7588 6015 11718 8928 14259 11696 3999 5972 2497 4273 10706 6431 7578 1616 1346 2790 7346 1742 338 1719 2554 2212
is_linear=0
shrinkage=0.05


Tree=4
num_leaves=31
num_cat=0
split_feature=10 12 10 10 1 0 10 0 1 10 0 10 12 7 10 12 10 10 10 7 10 12 9 0 12 8 7 7 14 12
split_gain=73826.7 22809.6 31243.3 19024.3 23763.3 12373 8419.24 8078.35 7623.39 8778.92 7306.9 7286.81 5378.02 5274.62 5199.52 4583.65 5228.05 4381.09 3663.85 3515.82 3374.87 3471.29 3724.6 3067 4978.86 3015.61 3526.64 3143.36 2974.87 2888.76
threshold=17.006041666666672 17.254063251229763 13.281458333333335 23.256666666666668 0.37940952255126048 0.91597561503675362 18.317291666666669 -0.60355339059327362 -0.70710678118654757 19.487500000000004 0.37940952255126054 11.841250000000004 21.857465611005509 21.215000000000003 13.961875000000003 23.322876232719487 20.587083333333336 26.452291666666671 14.423125000000001 37.175000000000004 27.018541666666671 19.700217467864992 30.495000000000001 0.60355339059327384 16.004257591899187 4.6050000000000013 15.505000000000001 5.8650000000000011 45.500000000000007 17.325977676189147
decision_type=2 2 2 2 2 2 2 2 2 2 2 2 2 2 2 2 2 2 2 2 2 2 2 2 2 2 2 2 2 2
left_child=1 2 11 4 5 8 -6 20 -2 19 18 -1 14 23 -3 16 -8 29 -4 -10 21 -5 -23 24 -11 -22 27 -27 -21 -9
right_child=3 12 10 7 6 -7 15 17 9 13 -12 -13 -14 -15 -16 -17 -18 -19 -20 28 25 22 -24 -25 -26 26 -28 -29 -30 -31
leaf_value=-0.14225029377542167 0.17248763797808331 -0.22814953760915452 -0.0030711980903744256 0.39796082434986169 -0.17557897998295696 -0.060960668063098855 -0.050002200696226899 0.14018459162900407 0.045703151863948972 0.73245423029769552 -0.046971967874884057 -0.060041861278501175 -0.31397925870699528 0.054368328094606538 -0.10457676816186112 -0.076775020960613755 0.068535987861313138 0.1563649601993948 0.054966578422820572 0.12831033761422705 0.72794145919058639 0.19055370353613299 -0.012125270101658779 0.10451385679660603 0.19332122229048976 0.18386034755795091 0.19572702583443424 0.87534869738987509 -0.11319144550603902 0.030854655096940655
leaf_weight=4988 2061 1061 4392 167 1017 1653 1727 801 6315 44 3814 5865 424 1831 4306 2225 2016 1719 7140 159 46 1470 268 1279 1601 27 223 42 644 2459
leaf_count=4988 2061 1061 4392 167 1017 1653 1727 801 6315 44 3814 5865 424 1831 4306 2225 2016 1719 7140 159 46 1470 268 1279 1601 27 223 42 644 2459
internal_value=4.35515e-10 -0.0527468 -0.032897 0.0566346 0.0340348 0.068378 -0.0426018 0.127269 0.0837215 0.0683128 0.0130211 -0.0978246 -0.142549 0.120916 -0.129006 -0.0199413 0.0138431 0.0917756 0.0328627 0.0331724 0.206057 0.180222 0.159301 0.162588 0.207742 0.351661 0.292384 0.604766 -0.0653723 0.0577176
internal_weight=61784 31990 26199 29794 22572 15587 6985 7222 13934 11873 15346 10853 5791 4755 5367 5968 3743 4979 11532 7118 2243 1905 1738 2924 1645 338 292 69 803 3260
internal_count=61784 31990 26199 29794 22572 15587 6985 7222 13934 11873 15346 10853 5791 4755 5367 5968 3743 4979 11532 7118 2243 1905 1738 2924 1645 338 292 69 803 3260
is_linear=0
shrinkage=0.05


Tree=5
num_leaves=31
num_cat=0
split_feature=10 12 10 10 12 0 10 12 0 10 0 12 0 10 12 12 7 10 1 10 7 0 11 12 11 8 10 7 10 7
split_gain=67078.6 19296.5 24968.6 18955.9 20834.6 10039.6 8448.06 9017.98 7749.24 7368.57 7366.13 6849.5 5633.84 5332.86 4954.7 4420.06 4356.88 4303.83 4053.35 4024.74 3998.88 3860.49 3801.65 3556.96 3148.98 3472.49 3061.65 2937.71 2699.82 2832.54
threshold=16.518958333333337 17.254063251229763 12.618541666666669 23.256666666666668 20.88799008066756 0.91597561503675362 19.487500000000004 18.264479860986874 0.60355339059327384 19.361250000000005 -1.0000000180025095e-35 20.745619229414718 0.37940952255126054 14.423125000000001 22.938962976957061 22.938962976957061 22.305000000000003 14.097916666666668 -0.37940952255126015 27.705208333333335 37.175000000000004 0.60355339059327384 14.097114988376418 16.551423401360577 20.06164113773405 13.905000000000003 11.771458333333337 22.705000000000002 26.69541666666667 15.365
decision_type=2 2 2 2 2 2 2 2 2 2 2 2 2 2 2 2 2 2 2 2 2 2 2 2 2 2 2 2 2 2
left_child=1 2 22 4 5 6 7 8 27 -6 14 17 13 -4 24 -11 21 -3 -12 -20 -9 23 26 -8 28 -26 -1 -2 -5 -30
right_child=3 11 12 10 9 -7 16 20 -10 15 18 -13 -14 -15 -16 -17 -18 -19 19 -21 -22 -23 -24 -25 25 -27 -28 -29 29 -31
leaf_value=-0.13878810713734641 0.12807415678588932 -0.20576836745539154 -0.017107190785259602 0.19444931290630296 -0.12293864620070238 -0.059550832846521053 0.35451295310570918 -0.0036481478517765144 -0.00020202443598354438 0.035533611633617436 0.18454921405956798 -0.29349693216369205 -0.057965792115371097 0.04694619545464894 0.12032231923878711 -0.061336507506054877 0.059530198458544438 -0.090557844463995341 0.0055349520056732276 0.15607235142270059 -0.16860930898900839 0.089345405782889284 0.22483605845343499 0.17012282282647365 1.0403067353963853 0.24829129414452661 -0.075254096017356331 0.046399084151482729 0.73384065485518912 0.28985684857045008
leaf_weight=4730 4057 1123 6895 1356 2119 1687 308 2982 2490 2467 575 686 3550 6146 2399 2253 1876 2914 2060 566 419 1366 84 1734 25 31 3165 1511 46 164
leaf_count=4730 4057 1123 6895 1356 2119 1687 308 2982 2490 2467 575 686 3550 6146 2399 2253 1876 2914 2060 566 419 1366 84 1734 25 31 3165 1511 46 164
internal_value=-3.0138e-10 -0.0548685 -0.0370762 0.049468 0.0290508 0.0567076 0.0684217 0.0443038 0.0731202 -0.0454799 0.120905 -0.147428 -0.00212171 0.0130801 0.16596 -0.0107055 0.120724 -0.122607 0.0643095 0.0379813 -0.0239712 0.15441 -0.109758 0.197935 0.233459 0.60187 -0.113318 0.10591 0.220285 0.38711
internal_weight=61784 29293 24570 32491 25269 18430 16743 11459 8058 6839 7222 4723 16591 13041 4021 4720 5284 4037 3201 2626 3401 3408 7979 2042 1622 56 7895 5568 1566 210
internal_count=61784 29293 24570 32491 25269 18430 16743 11459 8058 6839 7222 4723 16591 13041 4021 4720 5284 4037 3201 2626 3401 3408 7979 2042 1622 56 7895 5568 1566 210
is_linear=0
shrinkage=0.05


Tree=6
num_leaves=31
num_cat=0
split_feature=10 12 10 10 12 12 0 10 12 0 10 10 10 10 0 12 7 0 10 12 11 12 7 12 7 0 10 12 9 10
split_gain=61131.3 22482.6 30294.9 11521.6 11005.3 10699.1 10173.6 10021.5 8415.53 7273.69 6569.36 6277.15 5384.57 5333.38 5163.26 6099.83 4298.34 4095.54 3847.78 3836.2 3827.5 3588.63 3427.52 3406.69 2952.1 2945.12 2822.99 2652.76 2556.77 2492.58
threshold=18.267916666666672 19.554550169694647 13.281458333333335 26.452291666666671 16.221560140277656 22.938962976957061 0.91597561503675362 21.279583333333338 20.140198898040961 0.37940952255126054 16.118541666666673 21.871875000000006 15.028541666666667 11.771458333333337 0.60355339059327384 16.089616908619067 21.405000000000005 0.91597561503675362 15.416041666666668 23.322876232719487 19.458606714509344 21.942375132497407 37.175000000000004 16.879300311041025 29.105000000000004 -1.0000000180025095e-35 26.222708333333337 14.574865306422575 42.015000000000008 19.872291666666669
decision_type=2 2 2 2 2 2 2 2 2 2 2 2 2 2 2 2 2 2 2 2 2 2 2 2 2 2 2 2 2 2
left_child=1 2 13 5 9 6 7 8 14 10 -4 -7 -6 27 15 28 -17 19 -11 20 -5 -3 -14 -15 -9 -13 -26 -1 -2 -10
right_child=3 21 4 17 12 11 -8 24 29 18 -12 25 22 23 -16 16 -18 -19 -20 -21 -22 -23 -24 -25 26 -27 -28 -29 -30 -31
leaf_value=-0.11236222044532362 0.20428190541362917 -0.12949201489212336 0.029266425120120718 0.27692026461225983 -0.11504543906552037 -0.094148272885422615 -0.020582081043963668 0.16929090425658586 -0.057940446911835933 -0.080460729950599316 0.11738088721348956 0.054077239323560768 -0.0065250645138279027 -0.053597031531494234 0.024159597094456319 0.1327709438797717 0.013489620718999857 0.045980129993924188 0.013791375037258753 0.1594632775105419 0.7212980247758054 -0.24550995654408633 -0.14125814561109437 -0.18979919423129957 0.076013946374757974 -0.067381673600143341 0.64673565165563074 -0.19872662368112914 0.51506008484833676 0.035369177627476996
leaf_weight=3684 975 2700 8315 472 1942 1626 2568 3534 1531 1790 2837 2332 5216 6020 2064 1932 1240 487 2741 1147 54 885 519 497 1432 635 22 1172 71 1344
leaf_count=3684 975 2700 8315 472 1942 1626 2568 3534 1531 1790 2837 2332 5216 6020 2064 1932 1240 487 2741 1147 54 885 519 497 1432 635 22 1172 71 1344
internal_value=4.02938e-10 -0.0389208 -0.0266163 0.0635544 0.00596624 0.0523991 0.0709734 0.0875952 0.0565337 0.0299775 0.0516822 -0.0151893 -0.0430853 -0.0935403 0.0889605 0.12067 0.0861414 0.173589 -0.0234435 0.210736 0.322541 -0.158132 -0.018718 -0.0639841 0.144618 0.0280825 0.0846494 -0.133206 0.225377 -0.0143202
internal_weight=61784 38318 34733 23466 23360 21306 16713 14145 9157 15683 11152 4593 7677 11373 6282 4218 3172 2160 4531 1673 526 3585 5735 6517 4988 2967 1454 4856 1046 2875
internal_count=61784 38318 34733 23466 23360 21306 16713 14145 9157 15683 11152 4593 7677 11373 6282 4218 3172 2160 4531 1673 526 3585 5735 6517 4988 2967 1454 4856 1046 2875
is_linear=0
shrinkage=0.05


Tree=7
num_leaves=31
num_cat=0
split_feature=10 12 10 10 1 0 12 10 10 0 7 0 10 12 10 12 0 11 7 0 1 10 10 7 10 12 10 11 8 10
split_gain=55302 17922.3 23955.1 14207.1 18258.5 9969.35 9053.63 6924.22 6638.8 6161.92 5825.06 5038.58 5810.51 4431.9 4780.49 4159.98 3788.44 3392.67 3365.84 3343.28 3309.74 3328.89 3290.39 3208.24 3159.91 2977.35 2813.32 2743.03 3132.33 2692.59
threshold=17.006041666666672 16.879300311041025 12.618541666666669 23.256666666666668 0.37940952255126048 0.60355339059327384 16.221560140277656 18.877708333333338 21.440625000000001 -1.0000000180025095e-35 18.895000000000003 0.37940952255126054 14.423125000000001 20.88799008066756 14.097916666666668 22.938962976957061 -0.78656609248549292 14.097114988376418 35.650000000000006 0.91597561503675362 -0.37940952255126015 27.705208333333335 18.317291666666669 33.055000000000007 21.440625000000001 26.302229966571268 19.22729166666667 20.06164113773405 13.905000000000003 9.6310416666666701
decision_type=2 2 2 2 2 2 2 2 2 2 2 2 2 2 2 2 2 2 2 2 2 2 2 2 2 2 2 2 2 2
left_child=1 2 17 4 5 6 26 18 22 15 -9 12 -4 14 -3 27 -10 29 -8 24 -11 -22 -6 -16 -7 -24 -2 -5 -29 -1
right_child=3 13 11 9 8 19 7 10 16 20 -12 -13 -14 -15 23 -17 -18 -19 -20 -21 21 -23 25 -25 -26 -27 -28 28 -30 -31
leaf_value=-0.19339919151628721 0.14128084083969944 -0.1859557626783564 -0.011838140136120084 0.20081819277197255 -0.15215388221946438 0.010491910381828343 0.0277323813019721 0.16768589958118807 0.13286714003222513 0.16694529205852229 0.042142666649006691 -0.042405986098619348 0.054095627987896203 -0.22496853287175456 -0.064016610717524333 0.10944667507810096 -0.0086025907763909292 0.21743848639584723 -0.11887361526153235 -0.053937628791209474 0.004994002152302131 0.14190089836362985 -0.03807201628634492 -0.2071734250328946 0.13056208716308115 -0.22074398102246567 0.27061967995350644 0.97336720681190492 0.22114415959485118 -0.092625495587227047
leaf_weight=731 2351 1338 6700 1566 1017 3204 3057 1912 651 575 1788 4085 6666 858 3984 2399 1733 84 449 1653 2060 566 3345 434 661 239 512 25 31 7110
leaf_count=731 2351 1338 6700 1566 1017 3204 3057 1912 651 575 1788 4085 6666 858 3984 2399 1733 84 449 1653 2060 566 3345 434 661 239 512 25 31 7110
internal_value=-1.65751e-11 -0.045652 -0.0265455 0.0490168 0.0294868 0.0595905 0.0891924 0.0593075 -0.0376895 0.110057 0.107018 0.00619205 0.0210449 -0.118958 -0.103156 0.151264 0.0300286 -0.0986344 0.00895711 0.00557425 0.0582934 0.0345025 -0.0727775 -0.0780795 0.0310266 -0.0502535 0.164411 0.213114 0.556958 -0.10202
internal_weight=61784 31990 25376 29794 22572 15587 10069 7206 6985 7222 3700 17451 13366 6614 5756 4021 2384 7925 3506 5518 3201 2626 4601 4418 3865 3584 2863 1622 56 7841
internal_count=61784 31990 25376 29794 22572 15587 10069 7206 6985 7222 3700 17451 13366 6614 5756 4021 2384 7925 3506 5518 3201 2626 4601 4418 3865 3584 2863 1622 56 7841
is_linear=0
shrinkage=0.05


Tree=8
num_leaves=31
num_cat=0
split_feature=10 12 10 10 1 0 0 10 10 12 12 0 0 10 10 12 0 10 7 10 0 7 12 7 10 12 12 13 11 0
split_gain=50255.2 14899.9 18465.4 14525.7 18664.9 8892.72 8798.25 6795.06 5929.51 5466.63 5310.5 5163.36 4669.21 4767.24 4622.01 3800.7 3949.65 3473.75 3381.45 3216.62 3104.64 2881.3 2745.1 2518.88 2391.89 2235.57 2217.23 2143.34 2390.7 2081.63
threshold=16.518958333333337 17.254063251229763 12.449375000000002 22.04729166666667 1.0000000180025095e-35 -0.78656609248549292 0.60355339059327384 26.452291666666671 18.317291666666669 20.745619229414718 16.302765683506465 -0.9159756150367534 0.60355339059327384 14.423125000000001 19.107500000000005 17.103622002303563 -1.0000000180025095e-35 19.22729166666667 16.885000000000002 14.097916666666668 0.91597561503675362 11.195000000000002 23.322876232719487 37.175000000000004 9.6310416666666701 14.111067809902041 14.23656038824017 -7.3499999999999988 19.458606714509344 -0.37940952255126059
decision_type=2 2 2 2 2 2 2 2 2 2 2 2 2 2 2 2 2 2 2 2 2 2 2 2 2 2 2 2 2 2
left_child=1 2 24 4 6 -5 10 15 23 19 17 -10 13 25 -12 -7 -17 -2 -13 -3 22 -16 27 -6 -1 -4 -26 -9 -29 -24
right_child=3 9 12 5 8 7 -8 20 11 -11 14 18 -14 -15 21 16 -18 -19 -20 -21 -22 -23 29 -25 26 -27 -28 28 -30 -31
leaf_value=-0.18426494011248315 0.11335179193949907 -0.17854631428282547 0.0060521346193918432 0.18797938543243242 -0.08415402674803163 0.12651191846306126 0.0032203928853622027 0.74068271827239263 0.060071889424536243 -0.25931960991570191 0.017859428428227089 0.011938637392931247 -0.075314230907642388 0.036018419203281568 0.22689907259766004 0.062927994149991645 -0.026770781667403293 0.25576126170629754 -0.073810013086539394 -0.078945149095472039 0.039594096964267245 0.078285301138376853 0.052598716341532195 -0.2472073574074285 -0.066214319668392599 -0.046044610548438496 -0.12605809682530553 0.23312649652943948 0.74081423377990729 0.19478995347816297
leaf_weight=732 3396 1123 4110 1966 2162 1125 4745 26 1856 686 3174 1962 2010 7024 468 2890 2133 490 2777 2914 487 1076 390 266 4069 4127 2498 320 25 757
leaf_count=732 3396 1123 4110 1966 2162 1125 4745 26 1856 686 3174 1962 2010 7024 468 2890 2133 490 2777 2914 487 1076 390 266 4069 4127 2498 320 25 757
internal_value=-3.40996e-12 -0.0474922 -0.0318576 0.0428176 0.0203337 0.0925273 0.0578812 0.0695101 -0.0352157 -0.128826 0.088026 -0.0106222 -0.003679 0.00575595 0.0523759 0.0434427 0.0248377 0.131309 -0.0383091 -0.106652 0.149442 0.123331 0.184683 -0.102017 -0.0985342 -0.02005 -0.0889781 0.302907 0.269915 0.146442
internal_weight=61784 29293 24570 32491 22372 10119 13349 8153 9023 4723 8604 6595 17271 15261 4718 6148 5023 3886 4739 4037 2005 1544 1518 2428 7299 8237 6567 371 345 1147
internal_count=61784 29293 24570 32491 22372 10119 13349 8153 9023 4723 8604 6595 17271 15261 4718 6148 5023 3886 4739 4037 2005 1544 1518 2428 7299 8237 6567 371 345 1147
is_linear=0
shrinkage=0.05


Tree=9
num_leaves=31
num_cat=0
split_feature=10 12 10 10 12 12 0 10 12 0 10 10 10 10 7 0 12 10 10 12 0 7 7 7 0 7 6 12 0 11
split_gain=45448.6 17151.7 22765 9032.84 8377.96 8313.72 8056.52 7951.31 6388.84 5680.42 5002.21 4876.76 4299.97 4173.77 3915.08 4219.7 3729.73 3184.45 3035.32 2906.37 2901.31 3040.63 2800.17 2795.55 3359.81 2686.79 2605.45 2522.67 2266.84 2337.14
threshold=18.267916666666672 19.554550169694647 13.281458333333335 26.69541666666667 22.938962976957061 16.221560140277656 0.91597561503675362 21.279583333333338 20.140198898040961 0.37940952255126054 21.871875000000006 16.077708333333337 15.028541666666667 11.771458333333337 19.935000000000006 0.37940952255126054 16.089616908619067 15.416041666666668 19.803958333333338 21.942375132497407 0.91597561503675362 15.205000000000002 37.175000000000004 4.3850000000000007 -0.60355339059327362 29.105000000000004 2.5000000000000004 16.879300311041025 -1.0000000180025095e-35 18.186523831808213
decision_type=2 2 2 2 2 2 2 2 2 2 2 2 2 2 2 2 2 2 2 2 2 2 2 2 2 2 2 2 2 2
left_child=1 2 13 4 6 9 7 8 14 11 -6 -4 -7 -1 15 16 18 -11 26 -3 21 23 -14 -5 -25 -9 -2 -15 29 -12
right_child=3 19 5 20 10 12 -8 25 -10 17 28 -13 22 27 -16 -17 -18 -19 -20 -21 -22 -23 -24 24 -26 -27 -28 -29 -30 -31
leaf_value=-0.11591552069748207 0.18041432396001833 -0.11190812681445227 0.025763115767568862 0.040228793104038096 -0.084328174230993147 -0.10150641292078473 -0.01854514052601022 0.15068020342712032 -0.012606936551865353 -0.07277712373230763 0.030962144625715771 0.10092207849439427 -0.0044047360708288907 -0.045740971601293513 0.027551358316361314 0.044587515954376995 0.11748184288414135 0.012966782306886691 0.543185764691409 -0.21631685087344177 0.045492325211743012 0.15482750030788303 -0.12618477808056769 0.7287245269681587 0.30194679724456619 0.070443771650729542 0.64287768710743309 -0.16294635714601419 -0.057269417804976311 0.20152484644120094
leaf_weight=4856 395 2700 8226 66 1626 1942 2618 3577 2875 1790 2202 2926 5216 6020 2422 1543 1804 2741 85 885 437 1167 519 61 189 1473 33 497 672 221
leaf_count=4856 395 2700 8226 66 1626 1942 2618 3577 2875 1790 2202 2926 5216 6020 2422 1543 1804 2741 85 885 437 1167 519 61 189 1473 33 497 672 221
internal_value=1.38699e-11 -0.0335591 -0.0228119 0.0547992 0.0455388 0.00543261 0.0620544 0.0769069 0.0491285 0.0263021 -0.0133207 0.0454829 -0.0372008 -0.0808257 0.0773821 0.108649 0.151311 -0.0209069 0.270272 -0.137683 0.158718 0.192083 -0.0154255 0.329668 0.406081 0.127277 0.216072 -0.0546793 0.023984 0.046519
internal_weight=61784 38318 34733 23466 21546 23360 16825 14207 9157 15683 4721 11152 7677 11373 6282 3860 2317 4531 513 3585 1920 1483 5735 316 250 5050 428 6517 3095 2423
internal_count=61784 38318 34733 23466 21546 23360 16825 14207 9157 15683 4721 11152 7677 11373 6282 3860 2317 4531 513 3585 1920 1483 5735 316 250 5050 428 6517 3095 2423
is_linear=0
shrinkage=0.05


Tree=10
num_leaves=31
num_cat=0
split_feature=10 12 10 10 12 0 10 12 10 0 0 10 7 12 10 11 7 12 10 7 11 7 0 7 9 12 10 10 10 12
split_gain=41426.9 13654.6 16843.6 11602.4 13976.7 7895.09 7171.09 10014.6 5215.87 4810.11 4027.79 3972.74 3580.68 3391.26 3334.97 3023.23 2971.03 2684.55 2682.61 2518.68 2911.43 2498.9 2454.6 2440.38 2328.67 2285.64 2254.59 2216.61 2168.24 2238.65
threshold=16.781250000000004 16.879300311041025 12.618541666666669 23.813958333333339 20.88799008066756 0.60355339059327384 20.368958333333339 18.137510203674321 21.279583333333338 -0.60355339059327362 0.37940952255126054 14.423125000000001 33.055000000000007 21.052942641889047 13.961875000000003 14.097114988376418 27.665000000000003 17.79999595160659 30.208541666666669 17.175000000000004 16.525236396259867 11.665000000000001 0.12940952255126045 33.055000000000007 36.695000000000007 22.217810595616466 16.518958333333337 10.851458333333335 28.106458333333336 22.938962976957061
decision_type=2 2 2 2 2 2 2 2 2 2 2 2 2 2 2 2 2 2 2 2 2 2 2 2 2 2 2 2 2 2
left_child=1 2 15 4 5 6 7 21 19 28 11 -4 -9 14 -3 27 22 -7 -11 20 -6 -2 -10 -16 -22 -21 -15 -1 29 -5
right_child=3 13 10 9 8 17 -8 12 16 18 -12 -13 -14 26 23 -17 -18 -19 -20 25 24 -23 -24 -25 -26 -27 -28 -29 -30 -31
leaf_value=-0.12820592409189099 0.14605352276181582 -0.16769497918025877 -0.009863753008261783 0.19243862944304546 -0.042825040364961986 0.013871122335954604 0.15677435083563676 0.018264747416119421 0.064366363572047294 0.066027862586371514 -0.041543067796955768 0.045449914359200205 -0.10704166937472398 -0.25180746852783437 -0.061348432399611054 0.21362810837371007 -0.048083205172249836 -0.11317655071699327 0.25822572711463038 -0.04731467341263073 0.10136916369199754 0.074375349875795055 -0.21170456888420242 -0.19246943776462494 0.64089053943753249 -0.14613898330993208 0.0075833493957714162 -0.070386223366534953 0.34736002685479178 0.059940563739355218
leaf_weight=2380 1988 1225 6700 1137 1707 5784 2159 3424 1941 4083 3807 6297 684 577 3745 84 1137 448 190 1049 120 3131 84 392 24 1323 98 5461 162 443
leaf_count=2380 1988 1225 6700 1137 1707 5784 2159 3424 1941 4083 3807 6297 684 577 3745 84 1137 448 190 1049 120 3131 84 392 24 1323 98 5461 162 443
internal_value=-2.90343e-10 -0.0411097 -0.0246515 0.0407757 0.0257769 0.0499801 0.0747428 0.0555485 -0.0319635 0.103123 0.00368701 0.0169355 -0.00259932 -0.108526 -0.0952302 -0.08474 0.0165975 0.00473804 0.074574 -0.0683239 -0.0246119 0.102212 0.0529145 -0.0737728 0.191289 -0.102435 -0.214148 -0.0879364 0.173151 0.155289
internal_weight=61784 30766 24729 31018 25003 17618 11386 9227 7385 6015 16804 12997 4108 6037 5362 7925 3162 6232 4273 4223 1851 5119 2025 4137 144 2372 675 7841 1742 1580
internal_count=61784 30766 24729 31018 25003 17618 11386 9227 7385 6015 16804 12997 4108 6037 5362 7925 3162 6232 4273 4223 1851 5119 2025 4137 144 2372 675 7841 1742 1580
is_linear=0
shrinkage=0.05


Tree=11
num_leaves=31
num_cat=0
split_feature=10 12 10 10 12 12 0 10 12 10 10 10 7 0 12 11 7 6 12 10 7 0 7 10 7 0 11 11 12 7
split_gain=37783.9 14563.5 18681 7535.63 7299.14 6945.1 6516.18 6517.03 6449.05 4321.34 4032.17 3489 3270.86 3221.24 3306.68 3208.46 3086.87 2693.48 2659.89 2626.7 2592.91 2540.66 2747.43 2540.56 2528.86 2923.35 2466.49 2475.65 2460.64 2371.09
threshold=18.267916666666672 19.554550169694647 13.083125000000004 26.69541666666667 23.751730115150078 14.915248462733688 0.91597561503675362 21.279583333333338 20.284424828284934 16.118541666666673 15.640208333333335 22.137291666666673 21.215000000000003 0.37940952255126054 16.089616908619067 14.097114988376418 17.635000000000002 2.5000000000000004 14.476575837039826 20.512500000000003 29.105000000000004 0.91597561503675362 15.205000000000002 24.076250000000005 4.3850000000000007 -0.60355339059327362 15.261848138579701 15.627750050065432 22.217810595616466 26.085000000000004
decision_type=2 2 2 2 2 2 2 2 2 2 2 2 2 2 2 2 2 2 2 2 2 2 2 2 2 2 2 2 2 2
left_child=1 2 15 4 6 9 7 8 12 -4 16 26 13 14 17 18 -7 19 -1 -2 -9 22 24 -22 -5 -26 -6 -28 -3 -10
right_child=3 28 5 21 11 10 -8 20 29 -11 -12 -13 -14 -15 -16 -17 -18 -19 -20 -21 23 -23 -24 -25 25 -27 27 -29 -30 -31
leaf_value=-0.062157269971586028 0.18320764586315821 -0.10556280851243192 0.012328713603312919 0.031600158887379097 -0.13315692115696551 -0.028191996021590632 -0.018330625022660672 0.13062899478634438 0.0083968788215664971 0.080255555793409816 0.0022055063529902797 0.013842061890429476 0.021206826885785759 0.041207314065809193 0.10143226680969326 0.1740751083881136 -0.10790492001623334 0.65838951816161473 -0.11643969400665162 0.68146905079483988 0.016866510263940062 0.038926735319286691 0.1406903431848994 0.14662611070477799 0.68052266010495488 0.28242945074936543 0.28830100138118303 -0.041369240989257226 -0.20832472910838651 -0.090931531682158964
leaf_weight=6954 478 2853 8794 66 920 3554 2618 4065 2211 3191 6928 2297 2259 1646 2021 126 1845 36 3341 28 1196 437 1167 551 61 189 69 326 732 825
leaf_count=6954 478 2853 8794 66 920 3554 2618 4065 2211 3191 6928 2297 2259 1646 2021 126 1845 36 3341 28 1196 437 1167 551 61 189 69 326 732 825
internal_value=9.73546e-11 -0.0305987 -0.0206955 0.0499652 0.041507 0.00331174 0.0545674 0.0670281 0.0415227 0.0304142 -0.0230388 -0.0233396 0.069741 0.0957896 0.130843 -0.0767041 -0.0554323 0.24051 -0.0797734 0.210779 0.108735 0.144882 0.176104 0.0577924 0.306888 0.379564 -0.0882874 0.0162187 -0.126545 -0.0185945
internal_weight=61784 38318 34733 23466 21546 24312 17934 15316 9504 11985 12327 3612 6468 4209 2563 10421 5399 542 10295 506 5812 1920 1483 1747 316 250 1315 395 3585 3036
internal_count=61784 38318 34733 23466 21546 24312 17934 15316 9504 11985 12327 3612 6468 4209 2563 10421 5399 542 10295 506 5812 1920 1483 1747 316 250 1315 395 3585 3036
is_linear=0
shrinkage=0.05


Tree=12
num_leaves=31
num_cat=0
split_feature=10 12 10 10 1 0 12 10 10 10 0 12 0 7 7 10 12 10 11 7 9 9 0 12 12 7 9 11 14 10
split_gain=34167.3 11995.1 14889 9161.19 11938.5 7125.95 5738.54 5975.94 4543.78 4441.79 4139.68 4696.13 3492.56 3392.62 3190.89 2985.75 3095.58 2770.62 2612.85 2850.46 2797.49 2661.74 2564.12 2434.6 2381.29 2355.17 2343.1 2559.78 2774.95 2635.54
threshold=17.006041666666672 16.879300311041025 11.975625000000003 23.813958333333339 0.37940952255126048 0.60355339059327384 16.175994326683952 20.368958333333339 14.423125000000001 21.440625000000001 0.91597561503675362 23.591714348154923 0.37940952255126054 23.565000000000001 27.665000000000003 13.961875000000003 21.857465611005509 29.195625000000003 16.15050853221145 40.165000000000006 8.2050000000000018 14.095000000000001 0.12940952255126045 15.177476484787524 14.111067809902041 18.115000000000006 21.605000000000004 16.035715148173001 68.500000000000014 22.230625000000007
decision_type=2 2 2 2 2 2 2 2 2 2 2 2 2 2 2 2 2 2 2 2 2 2 2 2 2 2 2 2 2 2
left_child=1 2 -1 4 5 6 -2 13 24 -6 11 -5 18 -8 22 -3 -17 -13 -10 20 -20 -22 -11 -23 -4 26 27 -9 -29 -30
right_child=3 15 8 10 9 -7 7 25 12 14 -12 17 -14 -15 -16 16 -18 -19 19 -21 21 23 -24 -25 -26 -27 -28 28 29 -31
leaf_value=-0.093708216015926743 0.13484330854521795 -0.1648342573495247 0.0010976747618565731 0.16747190529386377 -0.05782594705923088 0.005260345274794475 0.049246873034609624 0.16261171454631806 0.039477355586886281 0.073565423841720087 0.015464077867579171 0.048236409918899548 -0.021646038244939977 -0.038310178267458264 -0.047865519465010942 -0.068644551271316523 -0.21292358344142134 0.2162327575641903 0.66939469779410021 -0.29136930175802928 -0.20657174894886632 0.1342422882715861 -0.15381666876767811 0.73499019535688259 -0.046666904144482088 0.080372687451646607 0.075598620818612336 0.61064686938024626 0.06814886710066119 0.53270301399182296
leaf_weight=5424 2830 1268 5159 2264 4601 5893 3982 301 6498 1829 1321 2153 2847 1532 1112 4944 402 277 41 22 31 48 133 26 5280 1078 273 85 81 49
leaf_count=5424 2830 1268 5159 2264 4601 5893 3982 301 6498 1829 1321 2153 2847 1532 1112 4944 402 277 41 22 31 48 133 26 5280 1078 273 85 81 49
internal_value=6.19712e-10 -0.0358835 -0.0202526 0.0385283 0.0245838 0.0490418 0.0743091 0.0510993 -0.000283483 -0.0267349 0.0936548 0.11566 0.0247117 0.0249202 0.0198006 -0.0958548 -0.0794938 0.0673866 0.0445107 0.239195 0.319143 0.182378 0.0581517 0.345316 -0.0230614 0.128417 0.194058 0.256732 0.3885 0.24325
internal_weight=61784 31990 25376 29794 23779 16104 10211 7381 19952 7675 6015 4694 9513 5514 3074 6614 5346 2430 6666 168 146 105 1962 74 10439 1867 789 516 215 130
internal_count=61784 31990 25376 29794 23779 16104 10211 7381 19952 7675 6015 4694 9513 5514 3074 6614 5346 2430 6666 168 146 105 1962 74 10439 1867 789 516 215 130
is_linear=0
shrinkage=0.05


Tree=13
num_leaves=31
num_cat=0
split_feature=10 12 10 10 12 12 0 10 12 10 10 10 10 9 13 7 7 0 0 11 12 0 7 12 0 10 0 7 7 0
split_gain=31388.2 12476.8 15414.5 6373.88 6353.85 6195.12 6075.75 5478.86 4324.94 3356.83 3287.75 3150.43 3073.28 3060.5 3848.27 3097.02 2892.55 2623.61 2547.43 2628.38 2432.55 2219.81 2138.74 2265.37 2560.54 2132.74 2113.01 2475.51 2293.3 3037.25
threshold=18.267916666666672 19.554550169694647 13.281458333333335 26.69541666666667 22.938962976957061 14.915248462733688 0.91597561503675362 21.279583333333338 20.140198898040961 22.337083333333336 15.028541666666667 16.118541666666673 11.771458333333337 44.905000000000008 26.450000000000003 19.935000000000006 32.025000000000013 0.37940952255126054 -0.5 12.150087485468662 13.542209842781359 -1.0000000180025095e-35 14.645000000000001 16.627790911051044 -0.5 19.872291666666669 0.91597561503675362 15.205000000000002 5.745000000000001 -0.60355339059327362
decision_type=2 2 2 2 2 2 2 2 2 2 2 2 2 2 2 2 2 2 2 2 2 2 2 2 2 2 2 2 2 2
left_child=1 2 12 4 6 11 7 8 13 -6 22 -4 -1 15 -15 17 18 20 19 -12 -2 -11 23 24 -7 -10 27 28 -5 -30
right_child=3 -3 5 26 9 10 -8 -9 25 21 16 -13 -14 14 -16 -17 -18 -19 -20 -21 -22 -23 -24 -25 -26 -27 -28 -29 29 -31
leaf_value=-0.096571066692495294 0.38926777039413102 -0.11669603443963679 0.014535958671070787 0.059770158310252501 -0.064555509183898893 0.056740201436696627 -0.017849379565070166 0.10685382571196794 -0.049159303133799938 0.045310817315545628 -0.015593989648805082 0.073140439155797363 -0.044024390615894776 0.13522536006249206 0.57830398799530391 0.010702174776591935 -0.08311941935847611 0.034081292609428812 -0.044561313720147704 0.05333922662551327 0.10993776284643293 -0.061083367432792794 -0.10679756669537591 -0.087221910940391612 -0.12152099598112494 0.037152677324428666 0.036207199883508741 0.12769251080651248 0.70686672115150628 0.27028309500643183
leaf_weight=4856 81 3585 8151 83 1914 919 2618 5050 1531 2174 2422 3191 6517 316 58 2275 1005 1488 1799 3223 2064 633 1477 915 258 1344 437 1167 51 182
leaf_count=4856 81 3585 8151 83 1914 919 2618 5050 1531 2174 2422 3191 6517 316 58 2275 1005 1488 1799 3223 2064 633 1477 915 258 1344 437 1167 51 182
internal_value=5.75087e-10 -0.027889 -0.0187227 0.0455404 0.0377615 0.00451885 0.0521443 0.0650424 0.0419838 -0.013497 -0.0204954 0.031024 -0.0664606 0.0652301 0.203938 0.0564493 -0.0034983 0.0850964 0.00725119 0.0237633 0.120486 0.0213181 -0.060733 -0.0282104 0.0176651 -0.00881033 0.132835 0.161308 0.285451 0.365844
internal_weight=61784 38318 34733 23466 21546 23360 16825 14207 9157 4721 12018 11342 11373 6282 374 5908 8449 3633 7444 5645 2145 2807 3569 2092 1177 2875 1920 1483 316 233
internal_count=61784 38318 34733 23466 21546 23360 16825 14207 9157 4721 12018 11342 11373 6282 374 5908 8449 3633 7444 5645 2145 2807 3569 2092 1177 2875 1920 1483 316 233
is_linear=0
shrinkage=0.05


Tree=14
num_leaves=31
num_cat=0
split_feature=10 12 10 10 12 0 0 7 10 12 10 10 1 10 10 12 7 10 13 9 13 12 11 11 11 0 11 12 11 12
split_gain=28327.8 11471.6 15022 5771.07 5967.4 5157.75 4879.63 4632.1 4341.13 3284.4 3220.31 3171.83 3309.33 3124.29 3041.35 2828.2 2518.28 2504.58 2503.26 3399.97 2316.46 2219.23 2714.98 2205.61 2239.03 2204.3 2599.6 2362.44 2110.19 2693.25
threshold=18.267916666666672 18.203775311768265 13.281458333333335 26.452291666666671 23.751730115150078 0.60355339059327384 0.91597561503675362 25.465000000000003 15.597916666666668 21.942375132497407 23.94604166666667 21.279583333333338 0.37940952255126048 15.686458333333336 11.841250000000004 16.6675589532434 43.465000000000011 22.137291666666673 11.450000000000001 46.105000000000011 29.050000000000004 13.542209842781359 14.743916071999783 15.261848138579701 15.627750050065432 0.91597561503675362 19.458606714509344 23.188592599992052 16.090402475124908 20.51074676687708
decision_type=2 2 2 2 2 2 2 2 2 2 2 2 2 2 2 2 2 2 2 2 2 2 2 2 2 2 2 2 2 2
left_child=1 2 14 4 6 8 7 11 15 13 28 12 18 -3 -1 -4 -10 23 21 -20 -13 22 -2 -6 -25 26 -5 -28 29 -9
right_child=3 9 5 25 17 -7 -8 10 16 -11 -12 20 -14 -15 -16 -17 -18 -19 19 -21 -22 -23 -24 24 -26 -27 27 -29 -30 -31
leaf_value=-0.089768931500830693 0.080292538596668114 -0.1260414426630404 0.011555398854706642 0.12847483507118265 -0.12125119468838777 -0.043493821200174448 -0.016652781588510999 0.015994452400871925 0.058742825616519591 -0.17701852630813328 0.11944985563664078 0.10938242411580948 -0.0018371339532301187 -0.046408425531796665 -0.037272675407811068 -0.065558532017985005 -0.073999066170631109 0.0084905889647173445 0.099596816991907727 0.36736794794723393 0.5505238411078851 0.034987715547578777 0.6065874351482643 0.27875744842964673 -0.03476270559769512 0.02752066574822461 0.61816771193765685 0.20474351897691059 0.066325028771395234 -0.081595687756854607
leaf_weight=5058 69 1858 8591 1518 920 3609 2568 1803 6836 885 634 3694 1836 3654 6070 1380 377 2188 2296 125 30 2678 38 69 326 487 52 103 869 1163
leaf_count=5058 69 1858 8591 1518 920 3609 2568 1803 6836 885 634 3694 1836 3654 6070 1380 377 2188 2296 125 30 2678 38 69 326 487 52 103 869 1163
internal_value=3.30483e-10 -0.0264946 -0.0142475 0.0432634 0.0353683 0.010845 0.0471061 0.0578532 0.0222573 -0.0876071 0.0150615 0.0756162 0.0558804 -0.0732513 -0.0611338 0.000882726 0.0518048 -0.0242855 0.0762357 0.113422 0.112936 0.0439094 0.267201 -0.0788209 0.0200041 0.121139 0.148391 0.343441 -0.00219592 -0.0222717
internal_weight=61784 38318 31921 23466 21306 20793 17803 15235 17184 6397 4469 10766 7042 5512 11128 9971 7213 3503 5206 2421 3724 2785 107 1315 395 2160 1673 155 3835 2966
internal_count=61784 38318 31921 23466 21306 20793 17803 15235 17184 6397 4469 10766 7042 5512 11128 9971 7213 3503 5206 2421 3724 2785 107 1315 395 2160 1673 155 3835 2966
is_linear=0
shrinkage=0.05


Tree=15
num_leaves=31
num_cat=0
split_feature=10 12 10 10 12 0 11 12 12 14 7 12 7 10 9 0 11 10 0 8 10 10 3 12 13 9 14 8 0 9
split_gain=25798 8953.9 9437.08 7721.06 8830.98 5139.06 4897.51 5795.2 4353.34 4300.88 3267.42 2732.23 2633.41 2522.28 2494.02 2422.55 2738.06 2408.4 2392.28 2671.17 2392.03 2201.51 2454.98 2076.73 2716.93 2136.88 2073.2 2349.29 2072.44 2019.98
threshold=16.518958333333337 18.203775311768265 11.975625000000003 23.154166666666672 22.217810595616466 0.91597561503675362 15.395632964812835 18.98642431953235 14.025723863084918 96.500000000000014 17.175000000000004 21.052942641889047 39.57500000000001 29.195625000000003 47.595000000000006 0.37940952255126054 11.918354436043968 18.165416666666669 -0.78656609248549292 54.505000000000003 18.877708333333338 19.22729166666667 1.0000000180025095e-35 13.497330006683253 25.950000000000003 0.10500000000000002 65.500000000000014 11.665000000000001 0.60355339059327384 55.775000000000013
decision_type=2 2 2 2 2 2 2 2 2 2 2 2 2 2 2 2 2 2 2 2 2 2 2 2 2 2 2 2 2 2
left_child=1 2 -1 4 5 6 7 28 -4 13 -6 -3 14 18 23 16 -10 -16 19 -5 -9 22 -12 24 26 -25 27 -8 -2 -19
right_child=3 11 8 9 10 -7 12 20 15 -11 21 -13 -14 -15 17 -17 -18 29 -20 -21 -22 -23 -24 25 -26 -27 -28 -29 -30 -31
leaf_value=-0.082423740553195138 0.06420454724835932 -0.091676546298100972 0.020975637302642264 0.15619679293268474 0.0047270184843945353 -0.054754170470269418 1.0666068094968797 -0.052411835346060136 -0.03538875533655169 -0.057063861820038669 -0.26083850537849085 -0.21210548506736551 -0.0048014657116342259 0.20418665296913072 0.73715724945068362 -0.072891336953750593 0.017548608925008313 0.38281949400877607 0.064126490899825847 -0.28726169922522138 0.014541158334306409 -0.063255033482217823 -0.032060397535727168 0.44604498118889047 -0.15699934458732606 0.082564486147483199 0.16390418069437149 0.36700978497664138 0.017700386110813891 -0.0023687053578676752
leaf_weight=5534 6403 2563 7666 1140 1548 1644 20 2553 6835 567 333 577 646 425 26 2317 3801 77 5297 35 2794 1843 181 41 25 2934 40 30 3828 61
leaf_count=5534 6403 2563 7666 1140 1548 1644 20 2553 6835 567 333 577 646 425 26 2317 3801 77 5297 35 2794 1843 181 41 25 2934 40 30 3828 61
internal_value=-1.16489e-10 -0.0340271 -0.0244485 0.0306779 0.0173669 0.0301376 0.0373027 0.024758 -0.0088884 0.0753098 -0.051709 -0.113806 0.0874109 0.0861922 0.105717 -0.0265629 -0.0164705 0.295724 0.0784438 0.142987 -0.0174265 -0.0887744 -0.180277 0.0956329 0.304118 0.0875738 0.432207 0.646849 0.0468047 0.212555
internal_weight=61784 29293 26153 32491 25027 21122 19478 15578 20619 7464 3905 3140 3900 6897 3254 12953 10636 164 6472 1175 5347 2357 514 3090 115 2975 90 50 10231 138
internal_count=61784 29293 26153 32491 25027 21122 19478 15578 20619 7464 3905 3140 3900 6897 3254 12953 10636 164 6472 1175 5347 2357 514 3090 115 2975 90 50 10231 138
is_linear=0
shrinkage=0.05


Tree=16
num_leaves=31
num_cat=0
split_feature=10 12 10 10 12 0 12 10 12 14 7 7 11 7 0 11 14 11 9 12 0 10 12 13 13 12 10 12 10 7
split_gain=23640.8 8870.95 10838.1 5209.11 7386.41 5083.3 5046.08 5023.73 4736.26 3552.7 3530.44 3133.55 3099.86 3450.13 2933.01 2766.53 2565.88 3035.24 3095.67 2501.98 2406.55 2666.58 2256.56 2237.93 1937.09 1906.97 1904.52 2015.71 1815.39 1790.68
threshold=17.904375000000005 19.554550169694647 13.083125000000004 23.813958333333339 20.51074676687708 0.60355339059327384 14.129236645011982 21.039583333333336 16.089616908619067 96.500000000000014 26.375000000000004 15.645000000000001 12.877576138780048 36.685000000000009 0.78656609248549325 14.097114988376418 81.500000000000014 16.035715148173001 29.505000000000006 17.438710027543376 -0.60355339059327362 30.208541666666669 14.476575837039826 27.850000000000005 0.65000000000000002 27.22592940925076 20.297708333333336 22.030204217708867 15.197708333333335 9.6150000000000002
decision_type=2 2 2 2 2 2 2 2 2 2 2 2 2 2 2 2 2 2 2 2 2 2 2 2 2 2 2 2 2 2
left_child=1 2 15 4 5 7 -4 8 -2 20 25 16 28 14 -14 22 17 24 -19 -7 -5 -22 -1 -13 -9 -6 27 -12 29 -8
right_child=3 -3 6 9 10 19 12 11 -10 -11 26 23 13 -15 -16 -17 -18 18 -20 -21 21 -23 -24 -25 -26 -27 -28 -29 -30 -31
leaf_value=-0.047120114570576487 0.13843564774669917 -0.10667338734009604 0.035949001577993585 0.1394396165390025 0.013712108538016146 0.030157500438541797 -0.014069734970258235 0.58159297151224953 0.031750406006918433 -0.051706963892520212 -0.045810774337287544 0.14150118803927308 0.044055102975645938 -0.096204320335889174 -0.12821403820379265 0.17237289666183411 0.072111718975895342 0.63007080223072665 0.070060645284191259 -0.054921376238074374 0.058672459047997685 0.26121001281720752 -0.097117977864371707 -0.14803300657868387 0.12372591318633182 -0.2057656958588574 -0.035800774543583873 -0.21562155929109283 -0.0090644713253640406 -0.072322585212801313
leaf_weight=6954 1393 3092 7117 1670 4923 4030 2165 28 4109 486 337 606 4082 580 263 126 107 121 31 1100 3689 170 3341 75 132 101 1691 363 5525 3377
leaf_count=6954 1393 3092 7117 1670 4923 4030 2165 28 4109 486 337 606 4082 580 263 126 107 121 31 1100 3689 170 3341 75 132 101 1691 363 5525 3377
internal_value=2.50272e-11 -0.0256368 -0.018164 0.0373131 0.024562 0.0492512 0.000925511 0.0782632 0.058761 0.0779024 -0.0145011 0.175809 -0.0146612 0.0183379 0.0336278 -0.0604957 0.283396 0.355855 0.515858 0.0119145 0.0892951 0.0675948 -0.0633457 0.109614 0.203853 0.00929984 -0.0645119 -0.13387 -0.0293463 -0.0495659
internal_weight=61784 36622 33530 25162 19147 11732 23109 6602 5502 6015 7415 1100 15992 4925 4345 10421 419 312 152 5130 5529 3859 10295 681 160 5024 2391 700 11067 5542
internal_count=61784 36622 33530 25162 19147 11732 23109 6602 5502 6015 7415 1100 15992 4925 4345 10421 419 312 152 5130 5529 3859 10295 681 160 5024 2391 700 11067 5542
is_linear=0
shrinkage=0.05


Tree=17
num_leaves=31
num_cat=0
split_feature=10 12 10 10 12 0 0 10 10 7 12 10 10 12 10 9 12 0 10 12 6 10 7 11 11 7 7 7 9 12
split_gain=21402 8916.15 11421.2 4586.94 4748.84 4382.28 4168.72 4140.85 3392.3 3239.79 2635.71 2774.96 2475.42 2380.96 2274.07 2246.07 2202.83 2679.77 2479.98 2296.91 2506.44 2286.37 2176.42 1984.54 1868.02 2184.8 2170.33 3125.84 1906.98 2148.42
threshold=18.267916666666672 18.203775311768265 13.281458333333335 26.69541666666667 22.938962976957061 0.91597561503675362 0.60355339059327384 21.279583333333338 15.597916666666668 21.825000000000003 21.942375132497407 13.919375000000002 10.851458333333335 16.6675589532434 21.440625000000001 45.465000000000011 20.140198898040961 0.37940952255126054 19.043750000000003 16.089616908619067 2.5000000000000004 20.512500000000003 43.465000000000011 13.769086537648839 17.902392892027535 42.015000000000008 21.405000000000005 43.465000000000011 13.545000000000002 25.558820706459478
decision_type=2 2 2 2 2 2 2 2 2 2 2 2 2 2 2 2 2 2 2 2 2 2 2 2 2 2 2 2 2 2
left_child=1 2 12 4 5 7 8 9 13 16 11 -3 -1 -4 -6 -11 17 19 -18 20 21 -2 -10 -17 25 -16 -26 28 -28 -30
right_child=3 10 6 -5 14 -7 -8 -9 22 15 -12 -13 -14 -15 24 23 18 -19 -20 -21 -22 -23 -24 -25 26 -27 27 -29 29 -31
leaf_value=-0.097907758677039936 0.14516316930427381 -0.16632051397008019 0.010805096445458837 0.1116579876050067 -0.068430391504227736 -0.016004288008911828 -0.039204361295411522 0.090743119431272307 0.052476927189171588 -0.015789448594840463 -0.15700305478197477 -0.051740278478070202 -0.040699200063205689 -0.059949408386618011 0.015015984978801864 -0.018799362704157829 -0.090856709554954132 0.027204089864533928 0.045443091414626539 0.083483435072624401 0.59663443154579887 0.60984079092741017 -0.070926709277481237 0.29812696992277027 0.23434624018217312 -0.096578336667883374 -0.36035719400360472 0.21518088903116142 0.38094362974166873 -0.27455982351303104
leaf_weight=2415 485 592 8591 1920 1340 2618 3609 5050 6836 3097 885 4920 8713 1380 2455 89 458 1674 1230 1948 37 28 377 111 187 534 63 92 25 25
leaf_count=2415 485 592 8591 1920 1340 2618 3609 5050 6836 3097 885 4920 8713 1380 2455 89 458 1674 1230 1948 37 28 377 111 187 534 63 92 25 25
internal_value=-1.39891e-11 -0.0230291 -0.012232 0.0376046 0.0310056 0.0434399 0.00964751 0.054394 0.0199074 0.0343477 -0.0769066 -0.0640464 -0.0531146 0.00101258 -0.0133084 -0.00530208 0.0566558 0.0761554 0.00846127 0.10896 0.199191 0.170526 0.046027 0.157095 0.00853827 -0.00492091 0.111164 -0.0012013 -0.177371 0.0531919
internal_weight=61784 38318 31921 23466 21546 16825 20793 14207 17184 9157 6397 5512 11128 9971 4721 3297 5860 4172 1688 2498 550 513 7213 200 3381 2989 392 205 113 50
internal_count=61784 38318 31921 23466 21546 16825 20793 14207 17184 9157 6397 5512 11128 9971 4721 3297 5860 4172 1688 2498 550 513 7213 200 3381 2989 392 205 113 50
is_linear=0
shrinkage=0.05


Tree=18
num_leaves=31
num_cat=0
split_feature=10 12 10 10 1 0 0 12 7 10 10 12 0 10 0 11 12 13 10 13 7 13 10 7 1 10 7 12 10 7
split_gain=19605.5 7993.36 8315.3 5582.8 8071.86 4687.12 4279.42 4550.74 3003.11 3080.94 2927.77 2826.68 2814.23 3032.35 2696.62 2305.81 2574.92 2140.51 2874.38 2136.6 2084.19 2036.99 2000.08 1991.91 1973.69 2158.36 1914.3 2700.16 1877.64 1831.4
threshold=16.781250000000004 16.750928555426253 11.975625000000003 22.04729166666667 0.25881904510252057 -0.78656609248549292 0.60355339059327384 16.221560140277656 22.705000000000002 18.935833333333335 26.452291666666671 17.217104934777769 0.37940952255126054 14.423125000000001 -1.0000000180025095e-35 15.395632964812835 27.049363390877843 20.550000000000004 22.337083333333336 -5.8499999999999988 16.715000000000003 28.650000000000002 15.416041666666668 28.735000000000003 0.78656609248549303 13.961875000000003 19.935000000000006 20.88799008066756 19.107500000000005 36.685000000000009
decision_type=2 2 2 2 2 2 2 2 2 2 2 2 2 2 2 2 2 2 2 2 2 2 2 2 2 2 2 2 2 2
left_child=1 2 -1 4 6 17 7 -2 9 -9 11 -7 13 20 -13 16 23 18 26 -16 -4 22 -14 28 25 -3 27 -5 -6 -15
right_child=3 24 12 5 15 10 -8 8 -10 -11 -12 14 21 29 19 -17 -18 -19 -20 -21 -22 -23 -24 -25 -26 -27 -28 -29 -30 -31
leaf_value=-0.070060429024166551 0.099596022866937139 -0.1307382474083022 0.0077010612768196353 0.84224001729958931 -0.076452823642911172 0.09129154525881511 -0.0070761599962322194 0.017092366812429278 -0.019844562932393416 0.096838666176970678 0.094292841882414727 0.038301542623445498 -0.069550461275278613 0.044827444153367424 0.084711976471896239 0.022284669241356907 -0.33397849269303276 0.052212616267440726 0.13611416674880425 -0.059284982134883792 -0.044642063308383162 0.24283097727457062 0.0036326533739582927 -0.11085312344383509 -0.30225908753951802 -0.059390829893346556 0.21170437817510807 0.22401745594812161 0.00020509870265753981 -0.05867744028100591
leaf_weight=5407 3217 1356 6111 38 1339 1266 4761 2962 2249 2049 2005 2890 2438 5701 304 1249 81 634 1166 1688 2761 64 1513 1012 97 4856 95 33 1980 462
leaf_count=5407 3217 1356 6111 38 1339 1266 4761 2962 2249 2049 2005 2890 2438 5701 304 1249 81 634 1166 1688 2761 64 1513 1012 97 4856 95 33 1980 462
internal_value=1.99876e-10 -0.0282809 -0.0153366 0.0280511 0.0132908 0.0585359 0.0322306 0.0500926 0.028157 0.0497007 0.0418255 0.0247147 0.000195805 0.0101268 0.00744999 -0.0376906 -0.0546691 0.127834 0.163828 -0.0373095 -0.00858832 -0.0369929 -0.0415256 -0.0494453 -0.0784597 -0.0749651 0.358492 0.554897 -0.0307214 0.0370684
internal_weight=61784 30766 24457 31018 20899 10119 15238 10477 7260 5011 8153 6148 19050 15035 4882 5661 4412 1966 1332 1992 8872 4015 3951 4331 6309 6212 166 71 3319 6163
internal_count=61784 30766 24457 31018 20899 10119 15238 10477 7260 5011 8153 6148 19050 15035 4882 5661 4412 1966 1332 1992 8872 4015 3951 4331 6309 6212 166 71 3319 6163
is_linear=0
shrinkage=0.05


Tree=19
num_leaves=31
num_cat=0
split_feature=10 12 10 10 1 0 7 10 14 12 7 0 13 10 11 10 11 7 9 9 12 10 7 0 10 12 4 12 11 11
split_gain=17722.9 7359.64 7769.34 4953.27 6982.36 4352.89 3945.43 4200.32 3158.35 2941.39 2683.72 2633.1 2484.04 2396.58 2161.58 2102.14 2289.38 2383.9 2506.37 2391.58 2210.73 1975.81 2073.94 1961.39 2264.37 1890.94 1868.02 1832.6 1794.02 2109.21
threshold=17.006041666666672 16.879300311041025 12.618541666666669 23.813958333333339 0.37940952255126048 0.60355339059327384 19.785000000000004 19.22729166666667 96.500000000000014 18.137510203674321 26.375000000000004 0.37940952255126054 30.550000000000004 21.440625000000001 14.097114988376418 14.423125000000001 16.15050853221145 40.165000000000006 8.2050000000000018 14.095000000000001 15.177476484787524 13.961875000000003 33.055000000000007 -0.60355339059327362 30.208541666666669 20.672281517960837 3.5000000000000004 17.757902709286135 17.902392892027535 16.15050853221145
decision_type=2 2 2 2 2 2 2 2 2 2 2 2 2 2 2 2 2 2 2 2 2 2 2 2 2 2 2 2 2 2
left_child=1 2 14 4 5 6 7 9 23 26 13 15 -9 -6 -1 -4 -17 18 -18 -20 -21 -3 25 -5 -25 -23 -2 -7 29 -28
right_child=3 21 11 8 10 27 -8 12 -10 -11 -12 -13 -14 -15 -16 16 17 -19 19 20 -22 22 -24 24 -26 -27 28 -29 -30 -31
leaf_value=-0.057357427126104511 0.0211371116822297 -0.12893243394920614 -0.0039975503991130359 0.12429521850371611 -0.027139231065363825 0.010132843994214373 0.018630201786272484 0.13464019884154313 -0.053920937718923201 -0.0010563799027747183 -0.065346819021957839 -0.030087691534275242 0.6812675014138222 0.043100780676419363 0.19763633832335473 0.030948988332977979 0.62253505892869909 -0.26730865578759805 -0.20712798487755563 0.11486751089493435 0.68732980627280016 -0.034849842755947658 -0.15418199738529975 0.051212848593587171 0.23785197385532017 -0.11724471207200526 0.11100279905448465 -0.093393994368018651 -0.14993850978427245 0.34078648646022675
leaf_weight=7841 749 1268 6700 1670 3353 5429 4182 2015 486 1578 2418 4085 21 1904 84 6498 41 22 31 48 26 3980 522 3689 170 844 1498 464 61 107
leaf_count=7841 749 1268 6700 1670 3353 5429 4182 2015 486 1578 2418 4085 21 1904 84 6498 41 22 31 48 26 3980 522 3689 170 844 1498 464 61 107
internal_value=-7.95452e-11 -0.0258438 -0.0136001 0.0277486 0.0174951 0.0361997 0.0559478 0.081833 0.0682837 0.0520323 -0.0217515 0.0050439 0.140278 -0.00169944 -0.0546547 0.015781 0.0356605 0.217895 0.291008 0.161555 0.316003 -0.0728192 -0.0595099 0.0790255 0.0594348 -0.0492655 0.0867212 0.0019814 0.116207 0.126322
internal_weight=61784 31990 25376 29794 23779 16104 10211 6029 6015 3993 7675 17451 2036 5257 7925 13366 6666 168 146 105 74 6614 5346 5529 3859 4824 2415 5893 1666 1605
internal_count=61784 31990 25376 29794 23779 16104 10211 6029 6015 3993 7675 17451 2036 5257 7925 13366 6666 168 146 105 74 6614 5346 5529 3859 4824 2415 5893 1666 1605
is_linear=0
shrinkage=0.05


Tree=20
num_leaves=31
num_cat=0
split_feature=10 12 10 10 12 12 0 12 10 12 7 0 7 11 8 10 13 10 9 13 10 2 12 0 10 11 11 7 10 11
split_gain=16192.2 7065.28 8187.79 3537.79 3964.03 3450.75 3304.53 3191.37 3133.1 3002.4 3023.76 2629.72 2398.9 2573.03 2205.05 2157.85 2015.19 1851.2 1809.06 2175.78 1837.45 3289.42 1754.29 1735.52 2403.53 2002.22 2945.2 1821.91 1783.12 2033.06
threshold=18.267916666666672 19.554550169694647 13.87291666666667 26.69541666666667 23.751730115150078 14.915248462733688 0.91597561503675362 14.574865306422575 21.279583333333338 18.918378498329364 0.065000000000000016 0.60355339059327384 23.375000000000004 12.877576138780048 23.375000000000004 11.277291666666668 27.450000000000003 10.728125000000002 44.905000000000008 26.850000000000005 21.039583333333336 -1.0000000180025095e-35 16.919842807861393 -1.0000000180025095e-35 23.154166666666672 15.261848138579701 15.627750050065432 17.015000000000004 20.297708333333336 16.387597499575339
decision_type=2 2 2 2 2 2 2 2 2 2 2 2 2 2 2 2 2 2 2 2 2 2 2 2 2 2 2 2 2 2
left_child=1 2 7 4 6 -4 8 15 9 11 -11 18 13 -7 -15 -1 23 -9 20 -20 -2 -22 -8 24 25 -6 -27 28 -28 -30
right_child=3 -3 5 -5 16 12 22 17 -10 10 -12 -13 -14 14 -16 -17 -18 -19 19 -21 21 -23 -24 -25 -26 26 27 -29 29 -31
leaf_value=-0.0637741632997329 0.067772087373550449 -0.086859211972557443 0.029847901306337122 0.097744304962519291 -0.082736630339554376 -0.019844998815659449 0.077861480291736881 -0.1716094326036797 0.074330354764580664 0.50747490067934176 -0.0047097863761462189 0.011585775227183952 -0.057520559258743754 0.058538543141647019 -0.04509741109616492 -0.010900297189693519 -0.49795377647334882 -0.065259888734620256 0.14534602853014977 0.54393910460693895 0.074226481332020325 0.80192588890592253 -0.033342013316107533 -0.08099986866801942 0.052522118927952714 0.31360184337444058 0.48534145785702604 -0.097819413289659693 -0.1772156224387591 0.20109372092520489
leaf_weight=2658 2598 3585 9272 1920 993 5629 423 452 5812 29 4543 2055 2257 2454 649 7042 22 4320 168 43 44 24 2195 837 1248 82 27 257 61 85
leaf_count=2658 2598 3585 9272 1920 993 5629 423 452 5812 29 4543 2055 2257 2454 649 7042 22 4320 168 43 44 24 2195 837 1248 82 27 257 61 85
internal_value=3.16544e-10 -0.020031 -0.0131333 0.032709 0.0269135 0.00738383 0.0365383 -0.0418575 0.0454119 0.0277273 -0.00146102 0.0547851 -0.0115703 0.000306673 0.0368628 -0.0253888 -0.0208746 -0.0753332 0.0856418 0.226576 0.0744876 0.331062 -0.0153745 -0.017951 0.00121792 -0.0413254 0.0389898 -0.013378 0.112064 0.043033
internal_weight=61784 38318 34733 23466 21546 20261 17934 14472 15316 9504 4572 4932 10989 8732 3103 9700 3612 4772 2877 211 2666 68 2618 3590 2753 1505 512 430 173 146
internal_count=61784 38318 34733 23466 21546 20261 17934 14472 15316 9504 4572 4932 10989 8732 3103 9700 3612 4772 2877 211 2666 68 2618 3590 2753 1505 512 430 173 146
is_linear=0
shrinkage=0.05


Tree=21
num_leaves=31
num_cat=0
split_feature=10 12 10 10 12 0 12 0 10 0 10 14 10 7 7 7 7 13 10 0 8 11 2 0 9 0 0 7 7 11
split_gain=14964.2 5344.37 5230.63 5031.63 7215.76 3857.01 3564 3241.04 3135.25 2944.05 2658.27 2512.34 2362.12 2308.63 2184.73 2059.19 2016.43 1956.36 2649.28 1856.78 1775.56 1745.49 3575.63 1963.22 2111.65 1739.78 1714.56 1709.86 1787.5 1705.91
threshold=15.984791666666668 16.750928555426253 11.841250000000004 22.04729166666667 16.302765683506465 -0.78656609248549292 22.938962976957061 0.37940952255126054 20.368958333333339 0.37940952255126054 19.22729166666667 96.500000000000014 29.195625000000003 33.055000000000007 23.195000000000004 16.715000000000003 7.8650000000000011 20.550000000000004 22.337083333333336 -0.9159756150367534 8.0950000000000006 16.15050853221145 -0.8783796973249266 0.25881904510252091 3.7850000000000006 -0.98296291314453399 -0.70710678118654735 18.185000000000006 13.765000000000002 12.877576138780048
decision_type=2 2 2 2 2 2 2 2 2 2 2 2 2 2 2 2 2 2 2 2 2 2 2 2 2 2 2 2 2 2
left_child=1 2 -1 4 7 17 8 10 13 15 21 12 14 19 27 -4 -3 18 -5 29 -12 -2 -23 24 -24 -10 -22 28 -7 -6
right_child=3 16 9 5 6 11 -8 -9 25 -11 20 -13 -14 -15 -16 -17 -18 -19 -20 -21 26 22 23 -25 -26 -27 -28 -29 -30 -31
leaf_value=-0.063641263639983806 0.056455068439936376 -0.026586997483893149 0.018314367160573802 0.3351855994317911 -0.017138831924238589 0.067874808838169223 -0.06951696398029486 0.015692991194297064 0.13589139294246552 -0.048770373281028012 0.3565704490094222 -0.058354091677289333 0.16058058612487097 -0.067173937523849939 0.0057714788762401178 -0.022704836568826867 -0.10043504112252499 0.041593211569547164 0.12169285068491326 -0.03201988054443583 0.28899522533222122 0.68089719138806692 0.45894312393484693 0.59983214259147644 0.030526339044860962 0.0280360906777887 0.018629236830628084 0.11844832061905762 -0.016745642499481045 0.035343598283514015
leaf_weight=4947 3463 1313 9245 166 2722 2111 2127 3897 426 3158 129 651 411 1674 3097 4573 3123 634 1166 3667 98 32 33 20 224 3057 146 997 886 3591
leaf_count=4947 3463 1313 9245 166 2722 2111 2127 3897 426 3158 129 651 411 1674 3097 4573 3123 634 1166 3667 98 32 33 20 224 3057 146 997 886 3591
internal_value=2.19561e-11 -0.0285265 -0.0183991 0.021226 0.00931009 0.0510257 -0.00891251 0.0484291 -0.000396581 -0.00521499 0.0792066 0.0358671 0.0440433 -0.0128367 0.0372887 0.00473926 -0.078577 0.113888 0.148299 -0.00372244 0.206539 0.0666151 0.18048 0.12267 0.0855371 0.0412277 0.127219 0.0617276 0.0428586 0.0127146
internal_weight=61784 26359 21923 35425 25306 10119 17264 8042 15137 16976 4145 8153 7502 11654 7091 13818 4436 1966 1332 9980 373 3772 309 277 257 3483 244 3994 2997 6313
internal_count=61784 26359 21923 35425 25306 10119 17264 8042 15137 16976 4145 8153 7502 11654 7091 13818 4436 1966 1332 9980 373 3772 309 277 257 3483 244 3994 2997 6313
is_linear=0
shrinkage=0.05


Tree=22
num_leaves=31
num_cat=0
split_feature=10 12 10 12 10 0 10 0 14 12 10 10 1 13 7 0 11 12 11 13 11 7 8 8 7 12 12 7 8 7
split_gain=13505.2 4912.84 4636.32 6030.23 4312.28 3366.16 5340.4 2917.2 2883 2789.69 2622.54 2389.87 2086.29 2261.14 2054.36 1991.26 2025.34 1955.02 2627.94 1882.92 2100.59 1881.56 1875.52 3322.33 1823.93 1782.42 1773.65 1703.87 1828.5 1674.02
threshold=15.984791666666668 18.777205821626378 23.154166666666672 16.221560140277656 11.771458333333337 -0.78656609248549292 20.368958333333339 0.37940952255126054 96.500000000000014 14.025723863084918 19.22729166666667 18.376458333333339 -0.37940952255126015 6.6500000000000012 33.055000000000007 0.37940952255126054 11.8920516585892 19.488494408942582 12.877576138780048 22.950000000000003 16.035715148173001 0.065000000000000016 4.245000000000001 2.2250000000000005 23.035000000000004 14.23656038824017 17.103622002303563 37.175000000000004 12.325000000000001 33.055000000000007
decision_type=2 2 2 2 2 2 2 2 2 2 2 2 2 2 2 2 2 2 2 2 2 2 2 2 2 2 2 2 2 2
left_child=1 4 3 7 25 6 14 10 24 -6 -2 -7 13 -13 17 16 -11 18 -5 20 27 -19 23 -22 -4 -1 -10 -8 -29 -9
right_child=2 -3 8 5 9 11 19 29 26 15 -12 12 -14 -15 -16 -17 -18 21 -20 -21 22 -23 -24 -25 -26 -27 -28 28 -30 -31
leaf_value=-0.041411671421265478 0.064364541422104987 -0.1085718879484404 0.088591249912156972 -0.01719102289857237 0.0131443938127223 -0.086912577628404708 0.089371467804632412 0.027331231532662061 0.19917959448310638 -0.032335733107305066 0.20233944736028972 -0.018313022875662544 -0.030469513480317834 0.11717047703738288 -0.061259007073155375 -0.073363054296192581 0.014657115663325594 0.34024279816209207 0.059286879755407633 0.0053485277500273523 0.10574292218422188 -0.028258341472045402 0.14695942986378216 0.84121972966407021 0.037106948161795474 -0.10500777480813364 -0.084190095008378582 0.10861345679696761 -0.17173340480166971 -0.08468662309359111
leaf_weight=3148 3676 1729 3614 2007 7444 1473 1249 3560 62 7102 380 695 5053 553 1411 1855 3386 35 2551 759 34 3369 520 28 3283 1695 505 99 141 368
leaf_count=3148 3676 1729 3614 2007 7444 1473 1249 3560 62 7102 380 695 5053 553 1411 1855 3386 35 2551 759 34 3369 520 28 3283 1695 505 99 141 368
internal_value=-1.22722e-10 -0.0271002 0.0201647 0.010819 -0.021381 -0.00386032 0.0125215 0.0475485 0.0551747 -0.0110305 0.0772912 -0.0295751 -0.0161712 0.0417209 -0.00565367 -0.0256103 -0.0171643 0.00420053 0.0256118 0.0727177 0.0974078 -0.0244694 0.177952 0.437894 0.0640845 -0.0636697 -0.0532043 0.0659256 -0.0560903 0.0168367
internal_weight=61784 26359 35425 27961 24630 19977 12203 7984 7464 19787 4056 7774 6301 1248 9373 12343 10488 7962 4558 2830 2071 3404 582 62 6897 4843 567 1489 240 3928
internal_count=61784 26359 35425 27961 24630 19977 12203 7984 7464 19787 4056 7774 6301 1248 9373 12343 10488 7962 4558 2830 2071 3404 582 62 6897 4843 567 1489 240 3928
is_linear=0
shrinkage=0.05


Tree=23
num_leaves=31
num_cat=0
split_feature=10 12 10 7 10 12 0 12 12 11 15 0 12 10 6 11 9 12 12 12 8 10 13 12 7 11 9 7 0 6
split_gain=12344.5 5256.34 5942.89 3282.83 3284.06 4140.6 3076.29 2981.21 2671.54 2449.22 3774.74 2295.83 5339.72 3694.47 3618.44 2010.54 2762.06 3653.75 3191.54 4553.47 2373.68 1995.09 2046.4 1985.75 1961.26 1882.31 2677.41 1866.05 1827.44 1820.54
threshold=17.904375000000005 19.554550169694647 13.87291666666667 13.505000000000001 23.94604166666667 22.217810595616466 0.60355339059327384 16.839038562148797 14.574865306422575 16.856313611753283 1.0000000180025095e-35 -1.0000000180025095e-35 16.089616908619067 18.877708333333338 2.5000000000000004 18.186523831808213 27.305000000000003 20.587732440444615 21.292742784387702 23.322876232719487 27.665000000000003 20.661041666666669 17.950000000000003 22.816486599335143 6.785000000000001 16.677733362894745 18.195000000000004 30.305000000000003 -1.0000000180025095e-35 1.0000000180025095e-35
decision_type=2 2 2 2 2 2 2 2 2 2 2 2 2 2 2 2 2 2 2 2 2 2 2 2 2 2 2 2 2 2
left_child=1 2 8 11 5 -5 7 9 -1 -4 27 12 14 25 21 -15 17 24 -19 23 -21 22 -2 -20 -17 -14 -27 29 -6 -11
right_child=3 -3 6 4 28 -7 -8 -9 -10 10 -12 -13 13 15 -16 16 -18 18 19 20 -22 -23 -24 -25 -26 26 -28 -29 -30 -31
leaf_value=-0.021861433014119424 0.05027068036034802 -0.080904456791173168 0.025371688906468067 0.017136749400950758 0.079148642746870543 -0.050759835838331796 -0.040326350584668602 -0.019252138146868863 -0.067557547314530342 0.26781085396283555 -0.092181949942342703 0.021266993458803916 -0.0421200645984047 0.06995068567882648 0.84974517747759826 0.91413763857313579 -0.097363703585032269 -0.20210548506482789 0.38153042128930492 -0.13561577604555372 0.37732229267849643 0.69960821092128755 0.30149763228637833 0.91966473857561748 0.34113138020038608 -0.10046483778527804 0.57936779737472532 0.03098269288356488 0.012959809595431146 0.7454492598772049
leaf_weight=9700 151 3092 11156 9082 2481 2983 3064 4670 4772 38 62 3660 963 3409 24 28 66 46 60 67 34 20 175 24 32 28 30 26 1799 42
leaf_count=9700 151 3092 11156 9082 2481 2983 3064 4670 4772 38 62 3660 963 3409 24 28 66 46 60 67 34 20 175 24 32 28 30 26 1799 42
internal_value=1.28669e-10 -0.0185255 -0.0127732 0.026963 0.0136985 0.00034972 0.00557011 0.0143626 -0.0369293 0.0282252 0.217714 0.0515527 0.0730469 0.058902 0.256051 0.0817731 0.194666 0.260899 0.170604 0.263278 0.0370564 0.21487 0.185132 0.535283 0.608534 -0.025459 0.251173 0.398974 0.0513277 0.518571
internal_weight=61784 36622 33530 25162 16345 12065 19058 15994 14472 11324 168 8817 5157 4787 370 3766 357 291 231 185 101 346 326 84 60 1021 58 106 4280 80
internal_count=61784 36622 33530 25162 16345 12065 19058 15994 14472 11324 168 8817 5157 4787 370 3766 357 291 231 185 101 346 326 84 60 1021 58 106 4280 80
is_linear=0
shrinkage=0.05


Tree=24
num_leaves=31
num_cat=0
split_feature=10 12 10 7 10 12 0 10 12 10 0 11 1 0 12 7 10 8 10 10 4 0 9 9 9 12 7 11 8 13
split_gain=11324 4897.85 4862.73 3777.4 3873.15 3381.7 3041.79 3508.15 2779.53 2641.81 2158.89 3364.47 2391.04 2109.5 2090.34 2123.14 1950.66 1844.72 2529.04 2025 2740.63 2725.57 2557.6 1863.12 1799.38 1802.41 1780.44 1734.73 1653.48 2481.15
threshold=16.60604166666667 16.750928555426253 12.449375000000002 23.565000000000001 21.197083333333339 22.030204217708867 0.91597561503675362 26.452291666666671 19.488494408942582 18.536458333333336 0.60355339059327384 16.15050853221145 0.1294095225512602 0.37940952255126054 21.942375132497407 7.8650000000000011 14.097916666666668 2.2250000000000005 17.148333333333337 21.117083333333337 4.5000000000000009 0.25881904510252091 17.025000000000002 15.965000000000002 41.305000000000007 27.22592940925076 0.10500000000000002 13.580065429916385 3.8850000000000002 -0.74999999999999989
decision_type=2 2 2 2 2 2 2 2 2 2 2 2 2 2 2 2 2 2 2 2 2 2 2 2 2 2 2 2 2 2
left_child=1 2 -1 6 5 -5 7 8 10 -10 11 -2 17 -4 15 26 -17 -13 23 21 -21 22 -20 -19 25 -11 -3 -28 -9 -30
right_child=3 14 13 4 -6 -7 -8 28 9 24 -12 12 -14 -15 -16 16 -18 18 19 20 -22 -23 -24 -25 -26 -27 27 -29 29 -31
leaf_value=-0.046406023054472133 0.056361666988065912 -0.22033440000580057 0.012132736061189454 -0.017137057332373022 0.026398892208712645 -0.12698796964345083 -0.019255591788427315 0.38707766131018151 -0.039216210910026389 0.040311688091883277 0.02235530554010793 -0.12801724361549868 0.53755396491870655 -0.030831219866185328 -0.19164125360098358 -0.13682811780161686 -0.055641647876870939 0.20343414306640628 -0.051465571500853569 0.62655762381023838 0.17383065162369837 0.52405063413521824 0.18551759524054307 0.87774052733466734 -0.064045269497139151 -0.15010491142592094 -0.016141516613595412 0.13660062185975663 0.29384362521749108 0.066778971394132677
leaf_weight=7222 5689 92 13022 4299 5125 837 2515 66 1848 5792 3776 57 41 3660 300 979 3029 20 242 45 130 34 215 21 484 127 1262 218 161 476
leaf_count=7222 5689 92 13022 4299 5125 837 2515 66 1848 5792 3776 57 41 3660 300 979 3029 20 242 45 130 34 215 21 484 127 1262 218 161 476
internal_value=-4.98528e-11 -0.0221878 -0.0121316 0.0206513 -0.00435307 -0.0350392 0.0324536 0.0392185 0.0350572 0.0134472 0.0524188 0.0698996 0.165573 0.00270652 -0.0630694 -0.0561569 -0.0754724 0.145611 0.167671 0.144208 0.290246 0.0921575 0.0600254 0.548811 0.0286466 0.036226 -0.00690994 0.00635699 0.148852 0.124169
internal_weight=61784 29784 23904 32000 10261 5136 21739 19224 18521 8251 10270 6494 805 16682 5880 5580 4008 764 707 666 175 491 457 41 6403 5919 1572 1480 703 637
internal_count=61784 29784 23904 32000 10261 5136 21739 19224 18521 8251 10270 6494 805 16682 5880 5580 4008 764 707 666 175 491 457 41 6403 5919 1572 1480 703 637
is_linear=0
shrinkage=0.05


Tree=25
num_leaves=31
num_cat=0
split_feature=10 10 12 12 0 0 12 10 10 10 7 7 12 14 10 8 7 7 11 10 14 13 10 7 12 14 12 12 10 9
split_gain=10346.2 3828.51 5923.41 3746.25 3109.57 2708.67 2685.41 2518.7 2431.06 2374.19 2419.15 2140.67 2025.18 2517.38 2226.68 1927.98 1888.02 2162.27 2478.39 1827.16 1808.76 1714.34 2364.93 1712.27 1949.09 2355.35 2122.63 2690.4 1888.44 1666.42
threshold=15.726458333333335 22.04729166666667 16.302765683506465 14.129236645011982 -0.78656609248549292 0.60355339059327384 22.938962976957061 20.297708333333336 11.179375000000002 11.771458333333337 11.005000000000001 33.055000000000007 17.103622002303563 96.500000000000014 30.208541666666669 49.295000000000009 11.575000000000001 39.07500000000001 16.856313611753283 19.22729166666667 60.500000000000007 20.550000000000004 22.337083333333336 23.195000000000004 20.672281517960837 62.500000000000007 22.938962976957061 22.816486599335143 27.018541666666671 6.6950000000000012
decision_type=2 2 2 2 2 2 2 2 2 2 2 2 2 2 2 2 2 2 2 2 2 2 2 2 2 2 2 2 2 2
left_child=3 2 5 8 21 19 7 11 -1 -5 20 -4 -6 14 23 16 -16 18 -18 -2 -11 22 -3 24 -14 29 27 28 -27 -26
right_child=1 4 6 9 12 -7 -8 -9 -10 10 -12 -13 13 -15 15 -17 17 -19 -20 -21 -22 -23 -24 -25 25 26 -28 -29 -30 -31
leaf_value=-0.052093703985460871 0.051898822606919019 0.30823726380715172 -0.0050035211696916873 -0.093486866626650733 0.087793381365719056 0.0026649071936709723 -0.062203347600810581 0.033842447728979923 0.0087090640519197817 0.019258633913308884 -0.054585802651923636 -0.065405787206639088 -0.0033539512817437967 -0.081304446692067558 -0.1378404474151986 -0.2763781271874905 0.18805496874378949 0.098294533206068957 0.71998642023573534 0.15281517828168462 -0.03709157107459015 0.03177693861445606 0.10652689547669365 -0.0059462425188308247 -0.19981656145089521 0.12657914930023254 0.076411066909566797 0.62128356228003634 0.57381854676283328 0.028207930552114048
leaf_weight=2024 5300 166 10352 1923 1256 3123 2144 3650 8755 2747 6491 1709 1208 576 28 20 41 69 47 490 2957 634 1166 2842 104 256 1294 37 26 349
leaf_count=2024 5300 166 10352 1923 1256 3123 2144 3650 8755 2747 6491 1709 1208 576 28 20 41 69 47 490 2957 634 1166 2842 104 256 1294 37 26 349
internal_value=3.32941e-10 0.0168097 0.0069057 -0.0249049 0.0430088 0.0401959 -0.00971235 -0.00254917 -0.00270802 -0.0418521 -0.0337099 -0.0135623 0.029398 0.0187637 0.0278824 0.189975 0.240391 0.307847 0.472155 0.0604392 -0.00995377 0.0994529 0.131665 0.0224493 0.0470981 0.0765976 0.10489 0.220411 0.167814 -0.0241421
internal_weight=61784 36887 26768 24897 10119 8913 17855 15711 10779 14118 12195 12061 8153 6897 6321 205 185 157 88 5790 5704 1966 1332 6116 3274 2066 1613 319 282 453
internal_count=61784 36887 26768 24897 10119 8913 17855 15711 10779 14118 12195 12061 8153 6897 6321 205 185 157 88 5790 5704 1966 1332 6116 3274 2066 1613 319 282 453
is_linear=0
shrinkage=0.05


Tree=26
num_leaves=31
num_cat=0
split_feature=10 12 10 0 7 10 12 9 0 12 6 10 11 11 13 9 7 9 11 14 8 12 10 10 7 11 9 12 12 12
split_gain=9452.87 4340.91 5030.46 2898.1 2768.17 2712.5 3374.54 2137.71 2111.83 4932.26 3225.77 2887.07 2317.31 2024.37 2741.48 2183.16 2875.2 2476.6 1799.33 4190.28 1797.08 1742.23 1720.03 1716.96 1704.17 1692.75 2449.55 3409.23 3179.01 3552.96
threshold=17.904375000000005 18.203775311768265 13.281458333333335 0.37940952255126054 13.505000000000001 23.94604166666667 22.217810595616466 0.095000000000000015 -1.0000000180025095e-35 16.089616908619067 2.5000000000000004 18.990416666666672 17.668505233849896 16.856313611753283 29.250000000000004 9.5050000000000008 12.445000000000002 14.645000000000001 16.321970183585716 67.500000000000014 12.655000000000003 14.129236645011982 19.74229166666667 9.6310416666666701 16.715000000000003 18.186523831808213 27.305000000000003 20.587732440444615 21.292742784387702 23.322876232719487
decision_type=2 2 2 2 2 2 2 2 2 2 2 2 2 2 2 2 2 2 2 2 2 2 2 2 2 2 2 2 2 2
left_child=1 2 23 13 7 6 -6 -2 9 10 22 12 -11 21 15 16 -15 -17 -3 -20 -19 -4 -9 -1 -25 -13 27 -27 -29 -30
right_child=4 18 3 -5 5 -7 -8 8 -10 11 -12 25 -14 14 -16 17 -18 20 19 -21 -22 -23 -24 24 -26 26 -28 28 29 -31
leaf_value=-0.10975630310148732 0.27960445817905605 -0.059506000983548725 0.039629905931437517 -0.026512846033584472 0.0144372849850639 0.04561245717490952 -0.046857537725583688 0.15483428423453507 0.014275265486921613 -0.02952807644710026 0.80164904060463105 0.061147974780497584 0.48872608271512119 0.86994576073650798 -0.31134020785490674 -0.27786634521824971 0.15961045848912206 -0.017218426486541486 0.78643547970624206 -0.06311117283841397 0.50251090572430535 0.0030880617481507679 0.46970388864477475 -0.018836020937840911 -0.065575258573790235 0.57870760072590943 -0.097793052593866989 -0.2242006689310074 0.48880469978946012 0.043784295301414054
leaf_weight=732 97 5608 4916 5031 9082 4280 2983 290 3606 1102 24 3274 22 28 24 28 29 29 21 47 39 9694 51 7795 2601 59 66 45 82 99
leaf_count=732 97 5608 4916 5031 9082 4280 2983 290 3606 1102 24 3274 22 28 24 28 29 29 21 47 39 9694 51 7795 2601 59 66 45 82 99
internal_value=1.03024e-10 -0.0162112 -0.00883882 0.00626721 0.0235946 0.0114142 -0.000717498 0.0461747 0.043578 0.0642401 0.24136 0.050627 -0.0193843 0.01742 0.185499 0.263435 0.508547 0.117899 -0.056406 0.199249 0.280862 0.0153837 0.201926 -0.0357413 -0.0305298 0.0723353 0.176687 0.24025 0.151892 0.245396
internal_weight=61784 36622 30946 19818 25162 16345 12065 8817 8720 5114 365 4749 1124 14787 177 153 57 96 5676 68 68 14610 341 11128 10396 3625 351 285 226 181
internal_count=61784 36622 30946 19818 25162 16345 12065 8817 8720 5114 365 4749 1124 14787 177 153 57 96 5676 68 68 14610 341 11128 10396 3625 351 285 226 181
is_linear=0
shrinkage=0.05


Tree=27
num_leaves=31
num_cat=0
split_feature=10 12 10 12 10 0 10 14 0 7 7 10 13 9 14 12 11 7 11 1 13 13 11 7 11 9 8 0 10 7
split_gain=8699.65 3438.82 3273.44 4804.87 2696.17 2484.04 4024.58 2298.35 2188.34 2372.56 1920.33 1865 1861.3 2011.27 1832.27 1797.77 1904.26 1762.74 1762.33 1655.95 2060.33 1635.92 1760.71 2063.82 2427.76 2163.77 1743.34 1587.19 1579.49 1555.03
threshold=15.726458333333335 15.563773577112594 23.154166666666672 16.221560140277656 12.449375000000002 -0.78656609248549292 20.368958333333339 96.500000000000014 -0.9159756150367534 17.635000000000002 33.055000000000007 18.376458333333339 5.9500000000000011 3.5550000000000002 52.500000000000007 19.488494408942582 12.877576138780048 60.440000000000005 14.407576155534878 -0.37940952255126015 6.6500000000000012 22.950000000000003 15.021565351283558 21.215000000000003 14.676676837820308 10.805000000000001 31.605000000000004 0.60355339059327384 29.195625000000003 5.6250000000000009
decision_type=2 2 2 2 2 2 2 2 2 2 2 2 2 2 2 2 2 2 2 2 2 2 2 2 2 2 2 2 2 2
left_child=1 4 3 8 18 6 10 17 9 12 15 -7 -2 -14 -15 16 -5 28 -1 20 -13 22 23 24 25 26 -8 -10 -4 -30
right_child=2 -3 7 5 -6 11 21 -9 27 -11 -12 19 13 14 -16 -17 -18 -19 -20 -21 -22 -23 -24 -25 -26 -27 -28 -29 29 -31
leaf_value=-0.03899049715301206 -0.045264064768950146 -0.053799615814282387 0.050206709477676963 -0.011832064654448379 0.0027955281278815997 -0.076600493492860425 0.23528914841086565 -0.051780751260158457 0.050185502686216299 0.02439931933821618 -0.059447525288263449 -0.021092569749231165 0.76457047939300538 0.089185540513558828 0.46175522776885014 -0.024783084378485247 0.050625850544145701 -0.13311119408011438 0.31674473728452412 -0.028102050409028863 0.10823500845644447 -0.0018972852572857629 0.13336337532786224 -0.031108882128663598 -0.16845795526890689 0.076240813523961615 0.73573114249855287 0.0053596192259131592 -0.27924398183822635 0.17266404059550525
leaf_weight=6606 36 6593 6357 2252 11663 1549 134 567 5330 174 1470 695 25 66 66 3523 2664 125 35 5053 553 759 963 524 71 359 20 3137 20 395
leaf_count=6606 36 6593 6357 2252 11663 1549 134 567 5330 174 1470 695 25 66 66 3523 2664 125 35 5053 553 759 963 524 71 359 20 3137 20 395
internal_value=2.30102e-10 -0.0228374 0.0154142 0.00791214 -0.0116849 -0.005323 0.00831022 0.044987 0.0387587 0.15829 -0.00670877 -0.027447 0.278999 0.353353 0.27547 0.00247786 0.0220141 0.0529422 -0.0371157 -0.0153634 0.0362136 0.0608979 0.0839117 0.0409316 0.105571 0.143497 0.300282 0.0335776 0.0563765 0.150885
internal_weight=61784 24897 36887 29423 18304 20589 12739 7464 8834 367 9909 7850 193 157 132 8439 4916 6897 6641 6301 1248 2830 2071 1108 584 513 154 8467 6772 415
internal_count=61784 24897 36887 29423 18304 20589 12739 7464 8834 367 9909 7850 193 157 132 8439 4916 6897 6641 6301 1248 2830 2071 1108 584 513 154 8467 6772 415
is_linear=0
shrinkage=0.05


Tree=28
num_leaves=31
num_cat=0
split_feature=10 12 10 10 7 0 12 10 9 10 14 0 11 12 8 11 14 0 13 9 9 10 0 14 2 13 4 12 2 10
split_gain=7990.06 3958.06 3509.25 2680.51 3122.64 2433.9 3006.74 2317.03 1973.61 1938.75 3196.26 1904.33 1860.87 1835.77 2538.27 2389.76 1930.27 1735.69 1713.31 1661.95 1677.16 1567.03 1548.26 1697.11 1540.27 1529.68 1527.04 1608.44 2220.55 1488.59
threshold=16.781250000000004 16.879300311041025 11.841250000000004 26.69541666666667 29.105000000000004 0.91597561503675362 19.488494408942582 19.487500000000004 41.305000000000007 21.117083333333337 66.500000000000014 0.60355339059327384 16.15050853221145 22.938962976957061 0.10500000000000002 17.902392892027535 96.500000000000014 0.37940952255126054 28.650000000000002 40.165000000000006 0.41500000000000004 23.94604166666667 0.37940952255126054 34.500000000000007 -0.60785761079279388 -6.7499999999999991 2.5000000000000004 26.487520740910977 -1.0000000180025095e-35 14.423125000000001
decision_type=2 2 2 2 2 2 2 2 2 2 2 2 2 2 2 2 2 2 2 2 2 2 2 2 2 2 2 2 2 2
left_child=1 2 -1 4 5 6 9 25 13 11 12 -2 21 14 -9 16 -15 29 -19 20 -16 -11 23 -14 -24 -8 -17 -28 -29 -4
right_child=3 -3 17 -5 -6 -7 7 8 -10 10 -12 -13 22 15 19 26 -18 18 -20 -21 -22 -23 24 -25 -26 -27 27 28 -30 -31
leaf_value=-0.046786948674991558 0.053749794337119107 -0.054351000792254495 -0.004813266017788395 0.075128229456410442 -0.015877120774702245 -0.024298636945936276 -0.236859837656512 0.46388090292089867 -0.073323787832258028 0.09674564576623168 0.042003989075959973 0.0041366211879039234 0.097252020175042364 -0.0024953437805205962 0.27877398202052484 0.40088650385792157 -0.19587496533772372 -0.032930819458819982 0.22584162102295804 0.44357870640578095 0.044121341178603835 0.34048365968503536 -0.045736513993678951 0.59410398295697042 0.47749068303541703 -0.021707811813288222 0.0051067937378926828 0.67841612755631409 -0.0090949757591537814 0.026608258280687171
leaf_weight=4962 6073 6037 9390 1920 6679 2419 85 38 470 399 1011 2838 23 2222 78 49 137 4015 65 27 3209 79 39 68 22 2942 144 24 23 6297
leaf_count=4962 6073 6037 9390 1920 6679 2419 85 38 470 399 1011 2838 23 2222 78 49 137 4015 65 27 3209 79 39 68 22 2942 144 24 23 6297
internal_value=3.50816e-11 -0.0180542 -0.0091932 0.0179075 0.0141319 0.0230721 0.0288016 0.00831354 0.0253144 0.047146 0.0970888 0.0379489 0.185487 0.0331047 0.0575578 0.00156679 -0.013726 0.000243745 -0.0288082 0.0528987 0.0496896 0.137029 0.337875 0.468526 0.142968 -0.0277494 0.151882 0.0880009 0.341975 0.00779981
internal_weight=61784 30766 24729 31018 29098 22419 20000 9448 6421 10552 1641 8911 630 5951 3352 2599 2359 19767 4080 3314 3287 478 152 91 61 3027 240 191 47 15687
internal_count=61784 30766 24729 31018 29098 22419 20000 9448 6421 10552 1641 8911 630 5951 3352 2599 2359 19767 4080 3314 3287 478 152 91 61 3027 240 191 47 15687
is_linear=0
shrinkage=0.05


Tree=29
num_leaves=31
num_cat=0
split_feature=10 12 10 0 0 12 12 10 11 14 15 12 13 10 7 10 4 7 7 15 10 7 7 8 13 9 9 13 11 2
split_gain=7300.94 3675.5 4907.69 2746.33 2366.49 2478.76 2242.14 2798.67 2177.87 1985.72 2439.69 1849.12 1826.71 1922.68 1733.24 1720.56 1707.75 1772.06 1652.08 1639.87 1568.94 1803.12 1557.58 1533.92 1520.27 1493.37 2180.01 1541.19 1824.25 2466.71
threshold=19.487500000000004 18.777205821626378 13.87291666666667 0.60355339059327384 -0.78656609248549292 16.089616908619067 16.954331231332045 23.94604166666667 16.090402475124908 96.500000000000014 2.4500000000000006 14.129236645011982 26.250000000000004 22.337083333333336 34.005000000000003 22.04729166666667 3.5000000000000004 18.195000000000004 29.505000000000006 0.75000000000000011 16.518958333333337 37.175000000000004 9.3050000000000015 11.465000000000002 -6.7499999999999991 9.0950000000000006 8.7650000000000023 25.850000000000005 18.186523831808213 -0.8783796973249266
decision_type=2 2 2 2 2 2 2 2 2 2 2 2 2 2 2 2 2 2 2 2 2 2 2 2 2 2 2 2 2 2
left_child=1 2 11 14 5 16 -6 12 20 10 19 18 -8 -14 -4 -7 17 -2 -1 25 -3 24 -13 -21 -22 26 -9 28 -27 -30
right_child=4 8 3 -5 6 15 7 9 -10 -11 -12 22 13 -15 -16 -17 -18 -19 -20 23 21 -23 -24 -25 -26 27 -28 -29 29 -31
leaf_value=-0.0044722621412687028 0.40114888369359758 -0.082276219237512035 0.024889806267903415 -0.023888997574307354 0.055822861052130905 0.028821302546252037 -0.025101884059715692 0.074171664457063621 0.08835380654101356 -0.068908015586847504 0.3867054344100111 -0.019623342603866705 0.054988495162641163 0.50081567384768277 -0.027808740786361252 0.086821964385887518 0.53722568147561767 -0.24914150848984717 -0.10497413905775217 0.14679096505559724 -0.22797258571218487 -0.11818075384200136 -0.067840937686988109 -0.28390116787826025 -0.016744234654948991 0.010754405544081396 0.41062293206155298 -0.20609773435733386 -0.10878266357751781 0.19430101895887478
leaf_weight=7072 22 2357 15414 4617 2593 3664 5322 1298 301 438 51 3026 99 32 1736 1964 44 20 434 29 87 541 3751 72 4080 2206 50 72 86 306
leaf_count=7072 22 2357 15414 4617 2593 3664 5322 1298 301 438 51 3026 99 32 1736 1964 44 20 434 29 87 541 3751 72 4080 2206 50 72 86 306
internal_value=1.71744e-10 -0.0111796 -0.00460356 0.0103404 0.026425 0.0531327 0.014365 0.00368015 -0.0433636 0.0323672 0.0430048 -0.0273779 -0.0205616 0.163893 0.0195554 0.0490618 0.319539 0.0914868 -0.0102833 0.0387492 -0.0489754 -0.0323037 -0.0463113 -0.160237 -0.0211543 0.0437511 0.0866513 0.0220921 0.0284161 0.127808
internal_weight=61784 43416 36050 21767 18368 5714 12654 10061 7366 4608 4170 14283 5453 131 17150 5628 86 42 7506 4119 7065 4708 6777 101 4167 4018 1348 2670 2598 392
internal_count=61784 43416 36050 21767 18368 5714 12654 10061 7366 4608 4170 14283 5453 131 17150 5628 86 42 7506 4119 7065 4708 6777 101 4167 4018 1348 2670 2598 392
is_linear=0
shrinkage=0.05


Tree=30
num_leaves=31
num_cat=0
split_feature=10 12 12 10 0 12 12 11 10 0 11 10 12 10 7 0 7 9 10 13 11 7 11 10 11 11 8 0 0 7
split_gain=6712.07 2965.07 2509.95 4081.27 2518.78 2614.68 2253.55 2552.38 2221.03 2206.64 2022.16 1969.14 1963.55 1822.47 1790.21 1781.13 1802.6 1720.91 2436.77 1713.64 2231.16 1688.89 1659.53 2438.14 1590.84 1590.74 2120.29 1900.14 1894.63 1918.1
threshold=15.984791666666668 14.129236645011982 16.302765683506465 21.279583333333338 -1.0000000180025095e-35 17.438710027543376 19.774242068078468 18.804356582491913 25.782708333333336 -0.9159756150367534 11.8920516585892 25.073750000000008 20.587732440444615 11.179375000000002 28.735000000000003 -0.25881904510252113 26.675000000000004 37.175000000000004 25.987916666666671 -6.7499999999999991 14.475253833618261 10.405000000000003 16.15050853221145 24.626458333333336 15.934583634776589 16.856313611753283 22.265000000000004 0.78656609248549325 0.37940952255126054 40.715000000000011
decision_type=2 2 2 2 2 2 2 2 2 2 2 2 2 2 2 2 2 2 2 2 2 2 2 2 2 2 2 2 2 2
left_child=1 13 22 9 6 19 7 -5 -7 -4 -3 -8 15 -1 -9 16 -12 -13 -19 -6 -21 -10 23 24 -2 26 27 28 29 -24
right_child=2 10 3 4 5 8 11 14 21 -11 12 17 -14 -15 -16 -17 -18 18 -20 20 -22 -23 25 -25 -26 -27 -28 -29 -30 -31
leaf_value=-0.042445247895093526 0.031808399490298157 -0.045174229186415497 0.0073874643220623931 0.10734558122655175 0.19486654828089245 -0.065825740312030881 0.020548796558533824 0.73392881483867256 0.17476054139441005 -0.030664694020374379 0.031999444418779409 0.095265034561516346 -0.14700969906435127 0.0099977287668715411 0.13579738626087254 -0.077529359358223318 -0.061484395591228196 -0.30576267738395663 0.072379981108710301 0.10047379448164279 -0.022892464577969222 -0.00056656138141472048 0.43075398420462907 0.35995132605645008 -0.14459076987436184 0.054684284534305343 -0.068495675314355783 0.72275435159152213 -0.014349068244072526 -0.065591125842183837
leaf_weight=2024 7596 10767 8246 595 179 1703 4575 29 163 7082 2993 1790 231 9127 22 594 623 67 117 652 837 873 103 56 130 455 54 22 55 24
leaf_count=2024 7596 10767 8246 595 179 1703 4575 29 163 7082 2993 1790 231 9127 22 594 623 67 117 652 837 873 103 56 130 455 54 22 55 24
internal_value=1.74518e-10 -0.0191052 0.0142158 0.00674075 0.0291138 -0.000653697 0.0473467 0.136443 -0.0307082 -0.0101938 -0.0334648 0.0385582 -0.00507591 0.000478889 0.475911 0.0027119 0.0158931 0.0802972 -0.0653133 0.0486985 0.0311269 0.0270187 0.0379122 0.031223 0.0288403 0.110922 0.210101 0.283847 0.230793 0.336956
internal_weight=61784 26359 35425 26930 11602 4407 7195 646 2739 15328 15208 6549 4441 11151 51 4210 3616 1974 184 1668 1489 1036 8495 7782 7726 713 258 204 182 127
internal_count=61784 26359 35425 26930 11602 4407 7195 646 2739 15328 15208 6549 4441 11151 51 4210 3616 1974 184 1668 1489 1036 8495 7782 7726 713 258 204 182 127
is_linear=0
shrinkage=0.05


Tree=31
num_leaves=31
num_cat=0
split_feature=10 12 10 7 7 0 12 12 10 14 10 12 11 12 14 9 0 0 4 8 13 12 8 9 14 14 4 9 10 13
split_gain=6210.84 3839.58 3716.66 2751.11 2520.05 2294.05 3366.19 2124.9 2371.02 2106.42 1886.04 2000.75 1877.47 1819.14 1806.71 1615.85 1926.4 1600.76 1863.24 1808.74 2419.39 1904.7 2661.61 3229.58 1796.91 2231.33 2040.96 1790.91 1712.72 1651.11
threshold=18.536458333333336 19.554550169694647 13.87291666666667 13.505000000000001 37.175000000000004 1.0000000180025095e-35 14.045794215327033 18.702542856881198 21.039583333333336 36.500000000000007 23.94604166666667 14.755380375626403 13.803972752672943 14.574865306422575 90.500000000000014 16.555000000000003 0.12940952255126045 -1.0000000180025095e-35 11.500000000000002 47.505000000000003 25.050000000000004 22.217810595616466 15.205000000000002 15.085000000000003 70.500000000000014 85.500000000000014 5.5000000000000009 8.8750000000000018 30.208541666666669 17.950000000000003
decision_type=2 2 2 2 2 2 2 2 2 2 2 2 2 2 2 2 2 2 2 2 2 2 2 2 2 2 2 2 2 2
left_child=1 2 13 5 -4 6 -2 8 -8 12 11 -11 -5 -1 -7 16 -14 19 -19 21 29 22 23 27 -24 26 -26 -12 -23 -21
right_child=3 -3 4 9 -6 14 7 -9 -10 10 17 -13 15 -15 -16 -17 -18 18 -20 20 -22 28 24 -25 25 -27 -28 -29 -30 -31
leaf_value=-0.013756484676987778 0.67186039465924974 -0.058459160596180705 0.011616771969336245 -0.044726730642780183 -0.054268164111658274 0.037697592223227466 0.10346309185404341 0.049050978157736805 0.34668115051065246 0.096170033087833617 0.28479900673594116 -0.011828693053050366 -0.0030091042782964005 -0.051464275592033704 -0.04598800846502249 0.26317474210292707 0.40295749178954532 0.012393382236034159 -0.17353740623410868 -0.099066543485969313 -0.48486643747892233 0.035599306789846179 -0.12041578062702543 0.41821370894175686 0.74870348793009056 -0.047301596781564141 0.15194845679951341 -0.10681062416388439 0.25967990979552269 0.2791179129951879
leaf_weight=9700 23 3981 19512 155 1568 2125 698 3635 117 449 53 9551 177 4772 926 196 35 1616 147 120 32 1624 104 151 23 63 38 65 90 38
leaf_count=9700 23 3981 19512 155 1568 2125 698 3635 117 449 53 9551 177 4772 926 196 35 1616 147 120 32 1624 104 151 23 63 38 65 90 38
internal_value=-1.27144e-11 -0.0118933 -0.00667899 0.0211306 0.00671603 0.0457276 0.0685294 0.0654111 0.138379 0.00856406 0.00479401 -0.00697955 0.103411 -0.0261903 0.0122984 0.159689 0.0640137 0.0330686 -0.00310964 0.0596335 -0.0884065 0.0723552 0.158537 0.265063 0.0328552 0.161405 0.376954 0.0690818 0.0473655 -0.00811079
internal_weight=61784 39533 35552 22251 21080 7524 4473 4450 815 14727 14164 10000 563 14472 3051 408 212 4164 1763 2401 190 2211 497 269 228 124 61 118 1714 158
internal_count=61784 39533 35552 22251 21080 7524 4473 4450 815 14727 14164 10000 563 14472 3051 408 212 4164 1763 2401 190 2211 497 269 228 124 61 118 1714 158
is_linear=0
shrinkage=0.05


Tree=32
num_leaves=31
num_cat=0
split_feature=10 12 10 7 14 10 0 11 12 10 10 10 12 10 12 0 10 11 10 10 14 4 8 13 7 11 9 11 14 14
split_gain=5685.25 3231.55 2887.17 2279.96 2260.68 2346.27 2066.59 3670.13 2625.5 2578.03 3499.63 2043.53 2257.44 2299.71 1840.97 2695.79 1933.25 1802.83 2358.81 2333.46 1989.24 1737.87 1614.87 2486.94 1580.72 2059.61 3209.82 2040.02 1999.47 2590.59
threshold=17.006041666666672 16.879300311041025 11.841250000000004 23.565000000000001 91.500000000000014 26.452291666666671 0.12940952255126045 18.186523831808213 25.558820706459478 23.705833333333338 25.987916666666671 23.94604166666667 22.119841038070458 20.441875000000003 16.089616908619067 -0.9159756150367534 18.826875000000005 12.240666641389952 17.386041666666671 17.619375000000005 24.500000000000004 5.5000000000000009 4.245000000000001 9.2500000000000018 50.175000000000004 15.8326680685943 1.7150000000000001 15.673439381807432 43.500000000000007 31.500000000000004
decision_type=2 2 2 2 2 2 2 2 2 2 2 2 2 2 2 2 2 2 2 2 2 2 2 2 2 2 2 2 2 2
left_child=1 2 -1 4 5 14 7 -6 9 -9 -11 12 -5 -14 15 16 21 -16 -19 -20 -21 -2 23 -7 25 27 -27 -4 29 -28
right_child=3 -3 24 11 6 22 -8 8 -10 10 -12 -13 13 -15 17 -17 -18 18 19 20 -22 -23 -24 -25 -26 26 28 -29 -30 -31
leaf_value=-0.040732485888875444 -0.071036319795883068 -0.045765180333137589 0.0021917827380459882 -0.0011021521939226775 0.0025573373057779236 0.086121244976917907 -0.054724096649573388 0.047224050164222722 -0.028444129663209125 0.95273594856262211 0.19788952821067401 0.033471090366328518 -0.15088644529777495 -0.029449415022157456 -0.021090908453630493 0.052870205815467343 0.73290069265799085 0.14087744474269015 -0.11236595060093882 0.33028853612917441 0.025958354577513439 0.41643072904610057 0.097729291832706899 0.71441435515880591 -0.11513838580041601 0.65589442505286299 0.0093964297211531437 -0.27417630510780017 0.020697338088489267 0.63128157065195201
leaf_weight=4962 33 6614 19691 5271 1370 36 1549 30 48 34 28 2652 550 1339 2239 3549 22 446 307 54 9520 41 648 28 285 26 33 67 278 34
leaf_count=4962 33 6614 19691 5271 1370 36 1549 30 48 34 28 2652 550 1339 2239 3549 22 446 307 54 9520 41 648 28 285 26 33 67 278 34
internal_value=-2.32083e-12 -0.0146374 -0.00652426 0.0157163 0.0254086 0.0325589 -0.014148 0.0274761 0.271324 0.427724 0.611838 -0.00402206 -0.0179092 -0.0648069 0.0286572 0.0599423 0.321388 0.0195823 0.0284007 0.0233238 0.0276749 0.199047 0.121394 0.360999 0.00179068 0.00344624 0.120164 0.00125461 0.0797899 0.32498
internal_weight=61784 31990 25376 29794 19982 16923 3059 1510 140 92 62 9812 7160 1889 16211 3645 96 12566 10327 9881 9574 74 712 64 20414 20129 371 19758 345 67
internal_count=61784 31990 25376 29794 19982 16923 3059 1510 140 92 62 9812 7160 1889 16211 3645 96 12566 10327 9881 9574 74 712 64 20414 20129 371 19758 345 67
is_linear=0
shrinkage=0.05


Tree=33
num_leaves=31
num_cat=0
split_feature=10 7 10 12 14 10 10 12 7 7 0 10 13 11 9 12 0 10 11 11 12 10 10 4 9 8 7 7 13 11
split_gain=5322.91 2570.01 2419.73 3315.72 2451.74 2404.47 2202.69 2179.05 2091.08 1935.51 1888.95 2334.26 2237.71 2049.99 1799.95 2140.81 1749.88 2062.13 1707.57 1662.16 1613.4 1526.37 2128.19 1741.67 3250.33 1510.72 2127.77 2277.79 1804.09 1469.91
threshold=14.423125000000001 39.07500000000001 21.440625000000001 16.342335792808836 94.500000000000014 23.705833333333338 29.195625000000003 14.574865306422575 33.055000000000007 8.3350000000000026 0.25881904510252091 19.22729166666667 -2.2499999999999996 18.043279465002239 7.3050000000000006 17.143112410765095 -0.9159756150367534 16.960625000000004 11.976987562264764 15.138534856094216 23.928642946565805 17.386041666666671 18.057291666666671 6.5000000000000009 46.815000000000005 14.365 10.105000000000002 5.5050000000000008 13.250000000000002 12.181412589700955
decision_type=2 2 2 2 2 2 2 2 2 2 2 2 2 2 2 2 2 2 2 2 2 2 2 2 2 2 2 2 2 2
left_child=7 2 3 10 6 20 -4 -1 14 -9 11 -2 -13 -12 -6 -16 17 -5 -14 -10 -3 29 -23 -24 -25 26 27 -20 -27 -19
right_child=1 5 4 16 8 -7 -8 9 19 -11 13 12 18 -15 15 -17 -18 21 25 -21 -22 22 23 24 -26 28 -28 -29 -30 -31
leaf_value=-0.0099483900085909262 0.037956404402697139 -0.034699505215503121 0.040829561235527258 -0.021492653028850672 0.049699945899913403 0.030599429305221609 0.19182993572197826 -0.010592876090471654 0.45825170761830097 -0.067556611921403817 0.0036467109725606705 -0.31404443413019179 -0.15297098630666733 0.51069353401660922 0.11654134709221711 -0.11835892590101119 -0.027022194969486227 0.004991851126987662 0.2898735672235489 0.029354022995665158 -0.142818396642232 -0.042581707548822505 0.0083853995136867979 0.062522178961335717 0.43065049881263384 -0.17289900689414053 0.23095588807103248 0.96536494860282307 0.33560049109966372 0.14772436306266731
leaf_weight=11184 6554 3183 8030 4064 339 1415 249 2364 37 4039 6048 20 25 20 112 724 7084 298 24 58 387 1208 2373 1243 63 33 86 26 37 457
leaf_count=11184 6554 3183 8030 4064 339 1415 249 2364 37 4039 6048 20 25 20 112 724 7084 298 24 58 387 1208 2373 1243 63 33 86 26 37 457
internal_value=4.58029e-11 0.00925777 0.0135567 0.00650955 0.0354481 -0.0245579 0.0453711 -0.0232652 -0.0292387 -0.0465255 0.0256009 0.0436872 0.193327 0.00531793 -0.0474817 -0.086889 -0.00812793 0.00566221 0.237255 0.196398 -0.04642 0.0252222 0.0150002 0.0339072 0.0802803 0.284613 0.381755 0.641129 0.0958793 0.0913876
internal_weight=61784 44197 39212 29663 9549 4985 8279 17587 1270 6403 12873 6805 251 6068 1175 836 16790 9706 231 95 3570 5642 4887 3679 1306 206 136 50 70 755
internal_count=61784 44197 39212 29663 9549 4985 8279 17587 1270 6403 12873 6805 251 6068 1175 836 16790 9706 231 95 3570 5642 4887 3679 1306 206 136 50 70 755
is_linear=0
shrinkage=0.05


Tree=34
num_leaves=31
num_cat=0
split_feature=10 12 10 0 0 12 11 12 10 10 7 0 12 0 10 7 9 8 10 7 11 8 7 8 14 9 12 12 10 9
split_gain=4854.44 2758.46 3403.18 1921.12 1908.91 1960.33 1896.62 1808.67 2021.85 1753.63 1658.31 1558.16 1626.45 1526.17 1463.01 1439.54 1437.31 1413.12 2048.07 1382.93 1372.42 1579.9 1371.55 1536.41 1388.05 1724.35 1860.44 1367.18 1571.23 2029.55
